svm_type c_svc
kernel_type rbf
gamma 0.0833333
nr_class 9
total_sv 12765
rho -1 1 1 1 -1 1 1 0.300191 1 1 1 -1 1 1 0.595767 1 -1 -1 1 1 -0.0389809 -1 -1 -1 -1 -0.5929 -1 1 1 0.130147 1 1 0.768903 1 -0.157737 -0.50477
label 1 385 200 28 399 117 203 362 344
nr_sv 724 351 1137 3784 895 189 1410 2928 1347
SV
1 1 1 1 1 1 1 1 1:-20.748998 2:11.880099 3:6.0452221 4:2.8314468 5:3.3737097 6:2.0250806 7:-1.3641407 8:-1.4950175 9:-1.0448725 10:-0.5780694 11:-0.42796665 12:1.8745859 
1 1 1 1 1 1 1 0.8749848771835938 1:-12.315216 2:9.6545294 3:3.9051963 4:1.5978946 5:3.2938403 6:3.5702557 7:2.4703032 8:1.0201024 9:1.0678637 10:0.43695631 11:-0.40447567 12:1.0606298 
1 1 1 1 1 1 1 1 1:-11.258305 2:8.6008837 3:5.4645571 4:5.0020308 5:5.6052417 6:2.7875255 7:0.7775204 8:-1.945598 9:-3.5701576 10:-4.2594286 11:-3.5501825 12:0.4983027 
1 1 1 1 1 1 1 0.3876650988393706 1:-10.991054 2:13.391176 3:5.5079943 4:4.1742781 5:1.7876854 6:-1.0594752 7:1.803848 8:0.7677131 9:-0.35296872 10:-1.0976747 11:-1.0734892 12:1.9376254 
1 1 1 1 1 1 1 0.5751583860442384 1:-17.153396 2:12.622369 3:3.67543 4:3.7002131 5:3.7906154 6:2.4051957 7:2.691244 8:1.2460629 9:1.8997758 10:0.51398092 11:-0.17573138 12:1.668453 
1 1 1 1 1 1 1 1 1:-18.88047 2:11.26896 3:7.2657756 4:5.5058136 5:2.6679173 6:2.1369804 7:1.2920679 8:0.90862239 9:1.6987321 10:-1.5704299 11:0.6011288 12:3.3315102 
1 1 1 1 1 1 1 0.9790763792887193 1:-14.179961 2:16.17104 3:5.1012296 4:2.5986109 5:2.5949659 6:-0.85336523 7:-0.28009039 8:0.36895045 9:2.2331374 10:1.8107322 11:-0.15559533 12:0.96294673 
1 1 1 1 1 1 1 0 1:-10.765957 2:12.403019 3:4.9456987 4:2.778632 5:2.3858247 6:0.10457394 7:1.050184 8:0.86099622 9:1.6855961 10:-0.0087413146 11:-1.5470994 12:-0.73249568 
1 1 1 1 1 1 1 1 1:-22.572659 2:10.907859 3:3.4220378 4:6.6978617 5:3.0237099 6:0.52508663 7:-0.79226909 8:-1.5718851 9:-0.4653767 10:-0.99039761 11:-1.4549439 12:0.87267087 
1 1 1 1 1 1 1 1 1:-19.22717 2:12.171912 3:6.0215865 4:2.4049099 5:-2.0120348 6:-1.3213636 7:-1.2223222 8:2.2199007 9:2.2574509 10:1.5430165 11:-0.12128389 12:1.3858774 
1 1 1 1 1 1 1 0.7724782570414069 1:-15.251708 2:11.506799 3:5.9371824 4:1.2735309 5:1.1584674 6:1.4831458 7:-0.071958408 8:-0.13457294 9:1.4198473 10:1.0631389 11:-0.036242768 12:0.1282685 
1 1 1 1 1 1 1 0 1:-4.9212601 2:9.7264885 3:7.3483285 4:3.5068256 5:2.6170911 6:1.510476 7:1.1435005 8:-1.1173302 9:-2.5541502 10:-2.5957514 11:-1.2283962 12:1.1778594 
1 1 1 1 1 1 1 0.4044539046077618 1:-20.929445 2:16.438487 3:4.2315763 4:6.0815494 5:3.9684271 6:3.4125298 7:2.7857463 8:1.7990151 9:-1.0750647 10:-0.47083642 11:0.13121005 12:-1.8520148 
1 1 1 1 1 1 1 0.3961963606947463 1:-5.486233 2:11.278998 3:5.6116738 4:4.8733073 5:3.8683507 6:2.7020587 7:0.30519018 8:-1.9745413 9:-1.4340151 10:-0.40754986 11:1.0222106 12:1.4963617 
1 1 1 1 1 1 1 0.9802914015365452 1:-1.7046699 2:11.031232 3:4.3806101 4:5.1382146 5:6.2684866 6:2.1259031 7:1.5476188 8:-0.74144714 9:-1.745963 10:0.36616761 11:-0.48094735 12:-0.88330153 
1 1 1 1 1 1 1 0.07972448109247313 1:-7.8265865 2:12.681386 3:6.6131005 4:3.6780411 5:2.933064 6:1.3486772 7:1.0413708 8:1.6652819 9:2.4760443 10:2.1684136 11:1.7278588 12:0.93834122 
1 1 1 1 1 1 1 1 1:2.841283 2:10.173133 3:4.832243 4:3.4796776 5:3.8070931 6:3.2138173 7:2.9445695 8:2.4117684 9:1.2587699 10:1.1626122 11:1.0368761 12:0.82386832 
1 1 1 1 1 1 1 1 1:-31.413752 2:13.918902 3:2.3991811 4:7.349893 5:5.3002074 6:5.2227654 7:3.4581455 8:4.054821 9:-0.010672077 10:2.0143593 11:-0.19002261 12:0.3963073 
1 1 1 1 1 1 1 1 1:-13.191371 2:12.223588 3:5.1353019 4:2.5090202 5:4.6818092 6:2.9868026 7:2.6749266 8:4.5388722 9:3.9890958 10:4.533157 11:1.3061284 12:-0.7973177 
1 1 1 1 1 1 1 0 1:-10.538103 2:12.15202 3:5.4592266 4:2.4810038 5:4.6392249 6:4.1093267 7:2.5563373 8:2.0962503 9:1.6633181 10:1.4225294 11:-0.072196431 12:-0.36205145 
1 1 1 1 1 1 1 0.2557999630984083 1:-13.941206 2:13.003523 3:6.2658153 4:4.3096388 5:4.5193615 6:2.5693209 7:3.6096053 8:4.7864427 9:0.0095840414 10:0.84488106 11:0.087801266 12:0.66744535 
1 1 1 1 1 1 1 0.401466906104104 1:-7.6446327 2:12.666768 3:7.2794391 4:4.0175847 5:1.7613192 6:3.2544199 7:3.311404 8:1.9129637 9:0.36569144 10:2.4757108 11:1.3276196 12:-1.075209 
1 1 1 1 1 1 1 0.8312716973328247 1:-4.1563803 2:10.458729 3:7.8575691 4:4.7116614 5:4.1708472 6:2.4111133 7:1.104175 8:-1.1295703 9:-3.1158392 10:-2.271822 11:-0.029436929 12:3.020355 
1 1 1 1 1 1 1 0.5056040351271602 1:-7.7112418 2:10.113309 3:5.7865076 4:4.0088394 5:3.3171055 6:0.47504591 7:-0.57616659 8:-0.6898489 9:-4.3872389 10:-3.9946222 11:-1.773438 12:-0.9082014 
1 1 1 1 1 1 1 0.978026804665789 1:-19.638826 2:10.660191 3:1.7951759 4:2.5917916 5:1.2777986 6:-0.83410636 7:-0.14330589 8:-0.48124017 9:-0.85771661 10:1.2228267 11:0.27190996 12:-0.45262101 
1 1 1 1 1 1 1 0.703213135401756 1:-16.676956 2:11.754963 3:4.0391269 4:2.4242216 5:2.2014569 6:2.6949116 7:-0.059019632 8:-1.5475604 9:-2.2006313 10:-0.66479167 11:-0.5135606 12:0.18854613 
1 1 1 1 1 1 1 1 1:-2.7379987 2:12.812289 3:-3.4633734 4:-2.260299 5:1.1936852 6:2.1550589 7:1.0132704 8:3.145613 9:0.23504932 10:-2.0531701 11:-2.4530871 12:0.75478774 
1 1 1 1 1 1 1 1 1:-11.442299 2:13.906008 3:-11.506005 4:-1.4925125 5:2.1373763 6:4.8543446 7:1.0661499 8:-4.0352793 9:-0.91721284 10:0.75374909 11:2.5493903 12:3.6427552 
1 1 1 1 1 1 1 1 1:-17.383956 2:18.470008 3:-18.15047 4:-3.1493219 5:-1.1165243 6:3.8648968 7:-1.4430948 8:-5.5449598 9:-3.2973817 10:-1.8597571 11:2.9974481 12:0.79044952 
1 1 1 1 1 1 1 1 1:-17.306996 2:8.7388224 3:-10.971686 4:-6.0748457 5:2.5045212 6:7.4702133 7:2.4167147 8:-1.4379596 9:-1.062789 10:1.232953 11:2.047608 12:-0.48786345 
1 1 1 1 1 1 1 1 1:-13.265749 2:10.06596 3:-2.2558417 4:0.058021225 5:3.9397668 6:3.9197016 7:0.97117573 8:-2.3543356 9:-4.6189437 10:1.2077244 11:2.840664 12:0.30933249 
1 1 1 1 1 1 1 0.559017583516361 1:-8.5218556 2:11.622055 3:5.2666238 4:2.7270142 5:0.40971975 6:-1.1239935 7:-0.84790183 8:-2.201805 9:-2.0895749 10:-2.9535719 11:-2.4390233 12:0.42751801 
1 1 1 1 1 1 1 0 1:-7.558211 2:12.352977 3:7.0609882 4:2.3871623 5:0.77244057 6:1.4792833 7:2.0398219 8:-0.1199163 9:-1.5128372 10:-2.149082 11:-2.3304891 12:0.44933666 
1 1 1 1 1 1 1 0.539601308215336 1:-2.9938933 2:13.16537 3:6.6006004 4:2.8970956 5:4.2492884 6:0.52821433 7:-0.10575144 8:-2.8461647 9:-2.851387 10:-0.14921515 11:-1.7152876 12:-1.0884043 
1 1 1 1 1 1 1 0.6739937471320971 1:4.1749092 2:9.8673345 3:6.0240436 4:2.6703254 5:1.4750214 6:1.5872676 7:2.1145655 8:-0.47770705 9:-1.0863616 10:-0.22447879 11:-0.85454341 12:0.59875162 
1 1 1 1 1 1 1 0.6001641501038505 1:-11.894418 2:12.481099 3:6.6211553 4:4.3766081 5:4.1652774 6:3.5168678 7:0.15276976 8:0.51091344 9:2.7373269 10:1.455248 11:-0.52950081 12:1.0084491 
1 1 1 1 1 1 1 0.7765787758955375 1:-28.428589 2:17.327259 3:0.94738601 4:8.0419091 5:2.4214897 6:6.525221 7:2.2423516 8:2.3146931 9:1.3982953 10:4.0281833 11:-0.5017461 12:-0.48552896 
1 1 1 1 1 1 1 1 1:-31.455988 2:23.423949 3:-0.99826626 4:11.546164 5:-1.4167924 6:7.2565091 7:0.92076576 8:4.3502686 9:-0.18149877 10:0.26407768 11:-0.2464401 12:-1.1354675 
1 1 1 1 1 1 1 0.943591450817426 1:-7.8698856 2:11.20102 3:5.1348501 4:3.7159835 5:3.4553207 6:2.5142249 7:1.1312172 8:4.1433501 9:3.7772773 10:3.3276178 11:-0.43127991 12:-0.81586805 
1 1 1 1 1 1 1 0.6702711973806949 1:-7.0958497 2:14.633226 3:6.7985383 4:3.7135991 5:4.0318202 6:0.59101571 7:0.81182583 8:3.9661101 9:0.63804476 10:1.2713797 11:-1.4532043 12:-1.081483 
1 1 1 1 1 1 1 0.7886290556730869 1:-1.1464745 2:12.944105 3:8.0297683 4:3.6060038 5:1.6833849 6:3.2887994 7:0.59707818 8:1.1128144 9:2.701301 10:2.2994527 11:-0.40235719 12:-1.63194 
1 1 1 1 1 1 1 1 1:-28.68941 2:16.659836 3:5.837984 4:7.3969865 5:-1.9337464 6:5.1696559 7:2.2501908 8:3.412225 9:0.51096977 10:3.6641678 11:0.82452088 12:2.0315022 
1 1 1 1 1 1 1 0.8542226664551715 1:-16.453068 2:14.106898 3:8.189425 4:4.6551703 5:5.0455471 6:3.4199459 7:1.1950255 8:2.8047072 9:1.9881754 10:3.3535101 11:-2.1693359 12:-1.0575514 
1 1 1 1 1 1 1 1 1:-24.876407 2:15.587362 3:5.0140699 4:5.1613007 5:0.62142916 6:3.5477783 7:2.6720933 8:2.1864724 9:1.8827101 10:5.8652373 11:2.0007064 12:0.26596772 
1 1 1 1 1 1 1 0.3767013352522538 1:-13.14937 2:13.10721 3:8.3310807 4:5.7987375 5:4.855943 6:2.3569779 7:3.3138359 8:0.9088972 9:-1.7298861 10:1.3956265 11:-0.51037217 12:0.58135593 
1 1 1 1 1 1 1 0.5531225935786672 1:-3.3815031 2:10.243869 3:6.2210818 4:5.7954803 5:1.8531558 6:0.1894086 7:1.9393689 8:-1.2343022 9:-2.8106687 10:-1.1634133 11:-1.6352887 12:0.78308501 
1 1 1 1 1 1 1 1 1:-0.42418532 2:7.7878728 3:0.50090128 4:8.7309343 5:1.1923143 6:-2.0303066 7:2.0913774 8:-0.8293936 9:-2.9420643 10:0.92178888 11:-1.362304 12:-2.8130341 
1 1 1 1 1 1 1 1 1:9.6578418 2:2.1399853 3:-5.2015023 4:6.3706508 5:-1.0126134 6:-2.2920541 7:2.3609242 8:0.73560116 9:-0.96297564 10:1.9650952 11:-0.92811827 12:-2.5335291 
1 1 1 1 1 1 1 1 1:-9.4908367 2:16.437851 3:0.75800925 4:3.4531524 5:2.5909938 6:3.2718304 7:4.0786877 8:-0.43807962 9:-0.61371469 10:1.9123383 11:-0.36802283 12:-0.88590769 
1 1 1 1 1 1 1 1 1:-11.469228 2:14.470041 3:2.2181626 4:4.4743815 5:4.9829994 6:2.902662 7:1.9781626 8:-1.2266546 9:1.272421 10:4.0369682 11:0.90685599 12:0.45660229 
1 1 1 1 1 1 1 1 1:-25.826851 2:18.807568 3:-5.4199933 4:8.6547064 5:4.0648897 6:7.0068427 7:8.406968 8:2.8964012 9:1.6026587 10:2.9853862 11:1.8470022 12:-0.67385831 
1 1 1 1 1 1 1 1 1:-14.529408 2:13.26889 3:2.2784665 4:6.8211832 5:5.5255781 6:3.9657111 7:5.1742546 8:-0.069285518 9:-0.12849271 10:3.4158453 11:2.4700694 12:0.91243494 
1 1 1 1 1 1 1 0.5725664178903444 1:-6.3038691 2:12.573278 3:5.5299861 4:6.2844097 5:4.2532464 6:1.852861 7:3.2070681 8:0.55550201 9:1.4439033 10:3.0311416 11:1.0150414 12:-0.26250862 
1 1 1 1 1 1 1 1 1:-7.0563287 2:8.2945367 3:6.4947239 4:7.795896 5:3.8086879 6:1.1495814 7:1.9658118 8:1.2545128 9:3.5253871 10:5.3748044 11:2.565749 12:-1.1766353 
1 1 1 1 1 1 1 0.8408627622153455 1:-5.3905659 2:10.133278 3:4.9827236 4:5.2647697 5:3.0433705 6:2.3306728 7:2.6297341 8:0.73719698 9:2.5981202 10:4.726199 11:3.1247803 12:-0.61910366 
1 1 1 1 1 1 1 0.8194095558795164 1:-30.585518 2:18.510114 3:-0.0116865 4:9.2842012 5:1.2031546 6:7.4471508 7:4.007989 8:1.7916665 9:3.2606035 10:2.7084077 11:1.1306613 12:-1.8571633 
1 1 1 1 1 1 1 1 1:-8.5847803 2:10.080391 3:4.492104 4:1.7836203 5:3.1359504 6:5.4010685 7:5.9336781 8:2.7960794 9:1.3777766 10:1.2033245 11:-0.38720206 12:-0.041767251 
1 1 1 1 1 1 1 0.6018459647813659 1:5.0158333 2:11.234974 3:5.4945136 4:3.6599739 5:2.0656666 6:0.75951335 7:1.2596459 8:-0.29104846 9:-2.35182 10:-1.8107082 11:-0.48012055 12:0.16828494 
1 1 1 1 1 1 1 0.7267688750675949 1:-4.8572035 2:12.70583 3:5.9123321 4:3.6241227 5:1.6930115 6:1.2481756 7:3.5738755 8:0.92256453 9:-4.4063654 10:-2.2654155 11:0.31149507 12:0.90058033 
1 1 1 1 1 1 1 0.6713375104736175 1:-5.7179066 2:12.266567 3:4.340824 4:1.6852072 5:0.71162009 6:0.63756499 7:-0.96173491 8:-2.741594 9:-1.9149226 10:-1.8009643 11:-0.027249534 12:0.96042713 
1 1 1 1 1 1 1 1 1:-5.964699 2:7.6163629 3:4.3495957 4:2.9258731 5:0.46677144 6:0.50451951 7:1.0926246 8:-2.8928387 9:-4.9791931 10:-3.8063145 11:-2.42787 12:1.4108562 
1 1 1 1 1 1 1 1 1:-12.71384 2:8.9430853 3:1.5021432 4:0.78923328 5:-1.5004384 6:-2.3909237 7:-1.8079702 8:-2.1277134 9:-4.1860777 10:-2.7571469 11:-2.9236168 12:-1.382143 
1 1 1 1 1 1 1 0.9984447983417878 1:-6.1909637 2:11.70048 3:3.5832872 4:-0.18385949 5:0.70379798 6:-1.1898655 7:-0.98025474 8:-2.8106413 9:-6.5147584 10:-5.2477003 11:-2.6618155 12:-1.0838328 
1 1 1 1 1 1 1 0.4044936716523267 1:-19.709563 2:16.668208 3:3.4733377 4:4.99772 5:3.1508769 6:2.4129995 7:2.9340301 8:2.7898147 9:0.42663349 10:1.1640051 11:-1.1109068 12:0.44620365 
1 1 1 1 1 1 1 0.8648504886006913 1:-18.8682 2:15.940024 3:4.0507126 4:4.813931 5:2.9372875 6:5.7116575 7:3.3139224 8:1.6203026 9:0.48226136 10:1.5705474 11:1.6948568 12:-2.0407497 
1 1 1 1 1 1 1 0.7251287038366556 1:-11.825011 2:11.166293 3:6.0786077 4:6.1112891 5:5.9798306 6:1.8527879 7:-0.73344503 8:0.47176225 9:-0.0096435136 10:-0.25167606 11:0.89708372 12:-1.1232451 
1 1 1 1 1 1 1 0.4072192768152765 1:-10.224598 2:15.789916 3:5.7478058 4:3.0009147 5:1.2190912 6:0.69703658 7:2.5608482 8:1.2706302 9:-2.1515693 10:-0.22785634 11:-0.20017507 12:-0.16222848 
1 1 1 1 1 1 1 0 1:-2.5456851 2:11.804195 3:4.7262048 4:2.7314383 5:3.5744383 6:1.6939138 7:0.82893103 8:-1.1667291 9:-1.9219832 10:-1.5799887 11:-2.1986494 12:-0.33136548 
1 1 1 1 1 1 1 0.7718648478955051 1:-0.99658214 2:11.677366 3:3.9777317 4:0.68729344 5:1.2203334 6:2.5835722 7:3.1758605 8:0.033256251 9:-0.84948846 10:-0.93298932 11:-0.69459074 12:0.48410953 
1 1 1 1 1 1 1 0.8004276501345919 1:-5.4190346 2:11.195024 3:4.4324479 4:2.6157857 5:2.7360453 6:1.2166687 7:2.5915835 8:2.8948189 9:1.0447324 10:-3.3074809 11:-2.9998429 12:0.94303798 
1 1 1 1 1 1 1 0.6943674681211762 1:-0.43738966 2:9.8205601 3:5.4183817 4:1.2564837 5:0.793122 6:1.5329725 7:1.6076787 8:-0.23504126 9:-3.0214381 10:-4.0028754 11:-1.3307596 12:1.9834574 
1 1 1 1 1 1 1 0.717079139052584 1:-10.469828 2:12.323475 3:3.7614005 4:1.2992908 5:-0.24101381 6:0.0029756398 7:1.3322537 8:1.3306429 9:-1.6036622 10:-1.8115367 11:-1.0631489 12:1.1499104 
1 1 1 1 1 1 1 0 1:-9.3652796 2:13.058378 3:5.4432144 4:2.9550673 5:2.0726271 6:2.4815522 7:1.7033657 8:0.55857688 9:0.9672507 10:2.4598772 11:0.67849161 12:-0.73240065 
1 1 1 1 1 1 1 1 1:-28.456243 2:19.333009 3:3.7952595 4:5.4952441 5:0.14621929 6:5.9254746 7:4.5718412 8:2.703886 9:1.7939015 10:3.8950318 11:2.8546018 12:-1.7947042 
1 1 1 1 1 1 1 1 1:-35.042344 2:20.535107 3:1.2278246 4:10.140832 5:1.6069779 6:9.1122052 7:3.4934165 8:4.2144885 9:1.5826841 10:1.7040234 11:1.3466761 12:-2.5909292 
1 1 1 1 1 1 1 0.7337699570544924 1:-31.163632 2:17.216817 3:3.9746004 4:6.7024072 5:4.1295945 6:7.2340137 7:4.707342 8:5.3985349 9:2.5299332 10:1.3422768 11:-0.083340411 12:-0.75373753 
1 1 1 1 1 1 1 0.2925988917367839 1:-29.473606 2:21.799434 3:0.76690539 4:8.701925 5:3.4788624 6:7.776135 7:3.0114131 8:4.4228094 9:3.090913 10:2.6673043 11:1.3388952 12:-1.9101172 
1 1 1 1 1 1 1 0.9418552965873637 1:-28.354198 2:16.820001 3:3.0315825 4:8.5570127 5:4.366009 6:7.7679832 7:5.8678437 8:6.0452201 9:1.6772593 10:-0.45523806 11:-1.2936148 12:-0.28560992 
1 1 1 1 1 1 1 1 1:-27.78808 2:22.945903 3:3.1876523 4:9.1408563 5:2.7085509 6:2.6100244 7:1.0573997 8:1.5549784 9:1.7986066 10:1.5986927 11:-0.0027631533 12:2.686903 
1 1 1 1 1 1 1 0.9471915696944053 1:-1.9181354 2:12.675338 3:6.38223 4:2.2469568 5:0.68892702 6:1.9782903 7:4.2918809 8:2.7656974 9:0.97141733 10:0.53586745 11:1.5235798 12:-0.24667937 
1 1 1 1 1 1 1 0.5003058156234747 1:-3.1188356 2:12.872916 3:5.5030793 4:2.6737338 5:3.5535969 6:2.2558062 7:1.9851358 8:1.0304418 9:-1.5280979 10:-4.7133894 11:-1.4480575 12:0.098434329 
1 1 1 1 1 1 1 0.1995310966611185 1:-4.5577035 2:12.678835 3:5.0141601 4:2.0416906 5:3.9289169 6:0.98471383 7:-0.3033166 8:-0.61510268 9:-1.9574377 10:-1.5223241 11:0.064457156 12:1.4211891 
1 1 1 1 1 1 1 0.7593858246400492 1:-7.3133428 2:9.8178449 3:3.2621425 4:1.3602692 5:2.3132032 6:2.6888127 7:2.606122 8:0.1117486 9:-0.10009931 10:1.2652587 11:-0.6855624 12:-0.83746799 
1 1 1 1 1 1 1 1 1:-16.957506 2:10.555209 3:3.2907449 4:3.3856018 5:2.8726746 6:0.046956817 7:2.5641578 8:3.8217462 9:2.061383 10:1.9602129 11:1.1333998 12:-0.7465242 
1 1 1 1 1 1 1 0.0549308767924587 1:-4.2445633 2:11.525353 3:7.5882514 4:5.3787593 5:4.2674699 6:2.3908869 7:0.83469522 8:-0.71963088 9:-0.6330431 10:-0.82220489 11:-0.65760644 12:-0.43605073 
1 1 1 1 1 1 1 0.7568559890986886 1:-34.164287 2:23.543023 3:0.28105786 4:11.582789 5:2.6652541 6:4.5358051 7:8.1216745 8:0.10660731 9:3.1058809 10:1.9364034 11:-0.43390768 12:-0.19684074 
1 1 1 1 1 1 1 1 1:-19.540069 2:19.750851 3:-1.0369297 4:9.43891 5:5.3122011 6:2.5549381 7:6.5139186 8:2.6072361 9:2.8062646 10:3.9375306 11:2.5265936 12:-1.1845892 
1 1 1 1 1 1 1 1 1:-22.5634 2:23.515654 3:-2.1510775 4:10.04092 5:3.6848813 6:2.0719975 7:4.3866969 8:0.92872895 9:5.9666883 10:4.6213329 11:1.5297632 12:0.54713855 
1 1 1 1 1 1 1 0.8124735663483033 1:-31.316008 2:23.98153 3:0.3371852 4:11.462422 5:5.6506997 6:6.0957074 7:6.4819628 8:1.1317658 9:6.4000174 10:2.3120422 11:-0.84092845 12:0.49476066 
1 1 1 1 1 1 1 0.6301594289668511 1:-27.168725 2:19.546801 3:4.2597678 4:9.0761321 5:6.0434681 6:5.9849287 7:5.6062553 8:2.3073555 9:5.1103133 10:2.6604763 11:0.26403183 12:0.14533902 
1 1 1 1 1 1 1 0.9419731244112937 1:-24.679864 2:23.199912 3:6.6754955 4:9.692327 5:2.6330629 6:6.1384124 7:6.0768503 8:0.54518467 9:3.8278991 10:1.1003367 11:-0.53121536 12:1.1869298 
1 1 1 1 1 1 1 1 1:-33.041436 2:32.628587 3:-2.0680244 4:12.770245 5:1.2505706 6:7.6113425 7:4.7318018 8:0.74884226 9:4.3332906 10:-0.60083296 11:1.4301003 12:-0.63473286 
1 1 1 1 1 1 1 0.5446923709560335 1:-28.730694 2:21.62143 3:6.443901 4:8.8729745 5:3.0466911 6:3.7799861 7:5.2335522 8:4.0047477 9:3.0264084 10:1.1852246 11:2.0740058 12:0.074804068 
1 1 1 1 1 1 1 0.7200377567768145 1:-28.94707 2:21.158408 3:4.7248174 4:9.1583881 5:2.5594873 6:2.9437798 7:4.4144483 8:5.7073974 9:4.1323902 10:-0.54135127 11:0.26120202 12:0.42097794 
1 1 1 1 1 1 1 0.2577698244784372 1:-4.1013167 2:13.290203 3:5.9839726 4:4.1299269 5:3.1814197 6:1.2033985 7:1.4156324 8:-0.40924411 9:0.059675959 10:2.4033575 11:1.5945403 12:-0.34076745 
1 1 1 1 1 1 1 1 1:-26.577458 2:13.456707 3:3.6592609 4:3.2533749 5:-1.0433964 6:0.38125873 7:-0.15615605 8:-1.2117683 9:-0.50528063 10:0.77487467 11:-2.0515253 12:-1.2814235 
1 1 1 1 1 1 1 0 1:-13.632205 2:13.09982 3:6.6045052 4:3.5177518 5:4.124196 6:1.6030722 7:0.62995469 8:-0.15704817 9:-1.4671663 10:-2.3871023 11:-0.75176711 12:-0.19840853 
1 1 1 1 1 1 1 1 1:-33.89043 2:23.073665 3:-1.8247332 4:7.2469591 5:-0.19419568 6:6.9074388 7:2.6381386 8:1.6094289 9:-0.23130456 10:4.2650512 11:2.3646367 12:-1.8801059 
1 1 1 1 1 1 1 0.958214674729915 1:-19.448239 2:15.672752 3:6.6624443 4:2.0853971 5:2.0063877 6:3.8658524 7:4.8301157 8:1.9318468 9:1.0798686 10:0.56988196 11:-1.6714978 12:-2.3522606 
1 1 1 1 1 1 1 0.8559675694367138 1:-10.749484 2:13.108035 3:4.4239263 4:1.2458954 5:2.2635066 6:2.8209567 7:1.8345776 8:-0.54078696 9:-3.2683111 10:-4.4196501 11:-2.0167107 12:-0.0094974975 
1 1 1 1 1 1 1 1 1:-17.641713 2:13.459697 3:3.0161352 4:2.8107277 5:4.402372 6:4.4345493 7:5.1095122 8:5.6713941 9:3.6152619 10:0.39268668 11:-1.8916184 12:-2.905155 
1 1 1 1 1 1 1 1 1:15.703748 2:11.63856 3:5.9769539 4:-0.85354423 5:0.96324756 6:3.0850123 7:2.939612 8:1.1259309 9:-1.1660135 10:-2.7818459 11:-2.3194491 12:1.2490957 
1 1 1 1 1 1 1 1 1:-15.649748 2:16.410054 3:4.519304 4:3.3641871 5:0.63812817 6:2.7935215 7:6.2410452 8:8.4966188 9:4.7084731 10:0.60963188 11:-0.47064003 12:-1.0839234 
1 1 1 1 1 1 1 1 1:-24.578767 2:19.532276 3:2.7116281 4:6.4469202 5:0.26069506 6:3.9974141 7:5.9023119 8:6.5865762 9:4.6447903 10:2.4083284 11:-1.2400183 12:-2.2526501 
1 1 1 1 1 1 1 1 1:-20.440737 2:20.207496 3:4.506154 4:4.3290726 5:0.76886728 6:5.3349888 7:7.3098929 8:6.897325 9:3.749001 10:2.4038562 11:-1.4078161 12:-2.7145666 
1 1 1 1 1 1 1 1 1:16.109895 2:11.515144 3:4.8674274 4:2.4524079 5:4.443314 6:4.0356204 7:2.701738 8:1.217484 9:0.55732322 10:-0.7254083 11:-1.2664391 12:-0.55918543 
1 1 1 1 1 1 1 1 1:-13.071987 2:16.952168 3:5.4778567 4:3.4540491 5:2.962332 6:4.1784681 7:6.8514993 8:6.2711259 9:-0.23971226 10:-1.1817685 11:-2.3517939 12:-0.45715748 
1 1 1 1 1 1 1 1 1:-7.2643166 2:14.696092 3:7.179983 4:1.4541327 5:1.1332711 6:3.0512757 7:7.3385197 8:6.6338911 9:-0.024376742 10:-2.8120466 11:-4.3196703 12:-0.11608383 
1 1 1 1 1 1 1 1 1:-12.014047 2:21.074357 3:2.1698335 4:-0.42810159 5:-3.0820364 6:4.4009473 7:3.9929929 8:5.3691748 9:-2.0061517 10:-2.1025402 11:-2.1591713 12:-1.3529584 
1 1 1 1 1 1 1 1 1:-10.461549 2:15.646022 3:0.35304942 4:-1.6927331 5:-1.2818158 6:1.4132357 7:3.2358836 8:3.0271152 9:0.39719823 10:-2.2123409 11:-2.6590025 12:-0.97794443 
1 1 1 1 1 1 1 1 1:-9.3949413 2:15.061548 3:3.9239654 4:-1.6359703 5:-2.1442096 6:0.34515731 7:0.85750403 8:4.2413693 9:-0.43999507 10:-0.6503316 11:-1.8439664 12:-1.3170535 
1 1 1 1 1 1 1 0.6854796897350097 1:-7.6701887 2:12.938209 3:3.5367533 4:0.13353303 5:3.134616 6:3.4913181 7:3.2824449 8:1.2887497 9:-0.49328963 10:-0.25302432 11:-2.4545564 12:0.60510249 
1 1 1 1 1 1 1 0.6522992307754018 1:-2.6736681 2:12.284374 3:4.3903953 4:1.5668817 5:1.3685211 6:0.63517871 7:2.2414657 8:2.277335 9:-2.5779557 10:-4.3159895 11:-3.1584874 12:0.1180884 
1 1 1 1 1 1 1 1 1:-10.958397 2:15.193118 3:7.1642485 4:-0.22982738 5:-0.84878786 6:-1.3910819 7:-1.6116293 8:-0.72453055 9:-2.0746532 10:-0.097174259 11:-4.5392729 12:-2.3124232 
1 1 1 1 1 1 1 1 1:-15.047309 2:21.456927 3:3.9502531 4:-0.0092171708 5:-0.20589092 6:3.9448286 7:6.4149822 8:1.7699451 9:-1.5954885 10:0.20945244 11:-2.5817969 12:-2.4761711 
1 1 1 1 1 1 1 1 1:-25.198235 2:25.397733 3:1.6773272 4:5.9826186 5:-0.16531655 6:6.2703169 7:7.8953018 8:4.9973829 9:2.0737355 10:1.0767786 11:-3.922623 12:-4.2745458 
1 1 1 1 1 1 1 0.8423903896445592 1:-27.900263 2:23.012818 3:1.9531112 4:8.1059164 5:2.3640472 6:5.1153147 7:8.1247113 8:6.6170637 9:3.2673851 10:1.9711541 11:-1.1901352 12:-2.0079753 
1 1 1 1 1 1 1 1 1:-26.820523 2:30.412869 3:-0.74663288 4:10.197595 5:1.5070038 6:7.3363921 7:6.0196856 8:3.4937831 9:2.5417146 10:0.62136274 11:-0.44386976 12:-2.4300443 
1 1 1 1 1 1 1 0.8844610134582512 1:-28.903164 2:26.071198 3:3.6938004 4:10.777395 5:1.6997548 6:6.4989201 7:6.6175018 8:5.8941641 9:3.8996353 10:0.18411379 11:-0.13960564 12:-2.1231694 
1 1 1 1 1 1 1 0.9758744938003992 1:-21.910301 2:20.87106 3:5.9487404 4:5.9759808 5:4.5534556 6:9.0407291 7:7.3848576 8:4.0626414 9:3.5291385 10:1.4264813 11:-1.2574567 12:-1.2681437 
1 1 1 1 1 1 1 0 1:-22.306902 2:21.706652 3:6.006786 4:8.9239344 5:4.4742829 6:3.5125904 7:3.1233698 8:4.939844 9:2.2622807 10:2.2744533 11:0.87408072 12:-1.523392 
1 1 1 1 1 1 1 0.5257404955821678 1:-27.757308 2:23.418495 3:-0.24206326 4:11.357403 5:3.0186772 6:7.6412221 7:2.5867855 8:5.7704583 9:3.015668 10:0.85387876 11:2.0515118 12:-1.4293863 
1 1 1 1 1 1 1 0.4316500479584611 1:-29.520364 2:19.293813 3:3.027155 4:6.7840106 5:3.0364082 6:6.6300353 7:5.7059216 8:4.8890803 9:3.8850167 10:2.0486201 11:1.0920844 12:0.41033885 
1 1 1 1 1 1 1 0.7533771449304113 1:-28.062773 2:21.668461 3:0.045167178 4:8.2324871 5:2.2060137 6:4.3948393 7:0.91374895 8:5.2431002 9:2.7023934 10:1.172243 11:-0.23104309 12:-0.25894455 
1 1 1 1 1 1 1 0.7821776515235636 1:-13.020246 2:11.898834 3:6.1737618 4:3.2952458 5:3.2847393 6:0.5403849 7:-1.9137084 8:-2.5059884 9:-2.6810579 10:-1.854606 11:-1.0680566 12:0.70891757 
1 1 1 1 1 1 1 1 1:-10.874802 2:11.43115 3:8.4395937 4:3.5454442 5:3.5695697 6:2.2027413 7:0.44130884 8:0.55869386 9:-3.9617928 10:-5.1247902 11:-3.9078006 12:1.255305 
1 1 1 1 1 1 1 0.2666571579922572 1:-7.8719264 2:11.194306 3:5.4784082 4:3.9077752 5:3.2138943 6:0.90964579 7:-0.3823535 8:-0.041890449 9:-1.3786061 10:-2.2130314 11:-3.0193985 12:-2.1547481 
1 1 1 1 1 1 1 0.9971332617187612 1:-3.233502 2:8.7564728 3:3.5453267 4:0.78071544 5:1.8333871 6:0.28283616 7:-0.53159 8:-0.41811602 9:-4.6052166 10:-6.2876732 11:-3.9101164 12:-0.13322131 
1 1 1 1 1 1 1 0.6237602952592767 1:-8.160746 2:9.8964378 3:6.3020278 4:3.8618289 5:2.029436 6:0.99876382 7:3.9113157 8:2.2152345 9:-0.55655323 10:-1.6426805 11:-2.0073251 12:0.73003946 
1 1 1 1 1 1 1 0.711321781591018 1:-16.469658 2:14.582202 3:6.706719 4:6.4579886 5:4.310534 6:2.9938275 7:5.3082113 8:3.487709 9:0.068339689 10:0.95779301 11:0.54568825 12:2.0079368 
1 1 1 1 1 1 1 0.9227777003205298 1:-31.39248 2:22.284894 3:4.4139521 4:11.109492 5:3.5124571 6:5.1769928 7:4.7830722 8:3.7272523 9:-0.49611822 10:2.1861028 11:3.0783879 12:2.3396774 
1 1 1 1 1 1 1 1 1:-32.007986 2:28.453329 3:0.92438553 4:16.942116 5:-0.0035297526 6:8.6562307 7:1.6813217 8:2.9266198 9:0.097426522 10:1.0468491 11:1.8114595 12:-0.92975364 
1 1 1 1 1 1 1 1 1:-12.222157 2:16.762053 3:-1.7730088 4:17.363486 5:4.8143896 6:8.3881981 7:9.0051479 8:1.0011578 9:-2.1033742 10:4.5867545 11:2.7515801 12:-2.2996358 
1 1 1 1 1 1 1 1 1:-19.685666 2:22.356022 3:6.3639295 4:12.943389 5:4.6090992 6:4.9610448 7:5.8429416 8:2.9428441 9:-0.27946589 10:0.95027365 11:2.3215667 12:-0.73327409 
1 1 1 1 1 1 1 0.293646969176007 1:-24.734285 2:22.354251 3:4.4310699 4:9.4108308 5:4.2480211 6:6.9343298 7:7.3585346 8:4.9016301 9:3.0946877 10:2.4241968 11:1.1569455 12:-0.97832728 
1 1 1 1 1 1 1 0.8691758338058263 1:-26.003383 2:27.081617 3:2.870792 4:13.66286 5:0.2749549 6:5.523799 7:2.8982381 8:6.0599537 9:4.5935343 10:1.465019 11:0.68223007 12:-2.1979115 
1 1 1 1 1 1 1 0.4914057158187342 1:-27.402895 2:26.456728 3:0.56740285 4:12.256486 5:1.1358944 6:6.6652034 7:2.7000096 8:3.1905984 9:3.693748 10:2.4031858 11:1.4410255 12:-1.2970582 
1 1 1 1 1 1 1 0.1332686276329091 1:-28.562551 2:22.061472 3:2.5362103 4:10.557849 5:4.4019858 6:5.4367231 7:6.4605552 8:2.8554667 9:1.4514641 10:1.8752288 11:2.7556381 12:-0.48462997 
1 1 1 1 1 1 1 0.9118074475559879 1:-31.962931 2:18.274906 3:0.11700311 4:10.166102 5:4.1262401 6:4.1108706 7:5.7694862 8:4.1364335 9:2.4579603 10:2.3154052 11:3.5546042 12:1.0512432 
1 1 1 1 1 1 1 0.7914608257133483 1:-13.700308 2:13.023805 3:9.2831182 4:5.541704 5:2.8929407 6:0.58434906 7:2.5133386 8:-0.06722501 9:-3.0321842 10:-0.38517396 11:-1.1526857 12:-1.2459786 
1 1 1 1 1 1 1 0.8058340228586576 1:-13.727059 2:13.778536 3:4.4725146 4:5.4283738 5:5.1469784 6:2.4707571 7:2.9023578 8:-0.20563112 9:-1.6883244 10:-2.1390504 11:-2.2762136 12:0.23463463 
1 1 1 1 1 1 1 1 1:-36.508284 2:24.886271 3:-1.8903089 4:10.16352 5:-0.88724719 6:6.2276814 7:1.04488 8:4.7546815 9:1.3618479 10:1.4522337 11:1.1171755 12:-0.83412239 
1 1 1 1 1 1 1 0.1207068807939266 1:-13.623495 2:15.042362 3:6.3087188 4:5.0602126 5:3.617688 6:2.6804862 7:2.8651602 8:3.4753505 9:1.8679692 10:0.77077641 11:0.9845277 12:-2.1032131 
1 1 1 1 1 1 1 0.06478352099813059 1:-9.7183156 2:14.656454 3:6.5082114 4:5.9429671 5:4.3919847 6:2.6760329 7:2.1627487 8:2.7863999 9:0.73835774 10:0.75653099 11:0.74315915 12:-0.41318026 
1 1 1 1 1 1 1 0.8012379402570697 1:-0.85475854 2:13.856802 3:7.8219631 4:3.9221204 5:2.2097331 6:3.2075281 7:2.6167737 8:2.6759767 9:2.3445756 10:0.23705153 11:-1.5776289 12:-0.75795968 
1 1 1 1 1 1 1 0.4828713604278375 1:-10.959603 2:14.288706 3:6.1928885 4:4.8397656 5:3.5854744 6:4.6543478 7:3.7488532 8:2.8209855 9:2.176604 10:1.1410322 11:0.14332062 12:-0.42994693 
1 1 1 1 1 1 1 1 1:-22.966547 2:19.599795 3:2.6334397 4:7.9303768 5:2.149919 6:4.5991654 7:0.27735146 8:4.1991146 9:1.7423684 10:5.3165818 11:2.6578127 12:-1.3238747 
1 1 1 1 1 1 1 0.7898417950736507 1:1.1682308 2:11.80257 3:6.3124189 4:4.3599892 5:4.1427605 6:3.1075995 7:1.8487144 8:-1.0277428 9:-3.746176 10:-3.5387042 11:-0.78277999 12:1.6586164 
1 1 1 1 1 1 1 0.7192460021671685 1:-13.520997 2:12.505729 3:5.9673279 4:5.8040269 5:6.6239522 6:2.4115258 7:0.8965366 8:2.7616871 9:-0.35260002 10:1.2312077 11:-0.59476411 12:-2.5915279 
1 1 1 1 1 1 1 0.9457368156481484 1:-15.599866 2:12.741713 3:3.2115112 4:2.2079464 5:2.5059423 6:3.3796689 7:3.0925957 8:5.3621633 9:0.64468589 10:0.86083943 11:1.6174958 12:0.36157124 
1 1 1 1 1 1 1 1 1:-23.928468 2:16.922673 3:3.7847198 4:8.4815036 5:4.5622076 6:5.814757 7:4.1371561 8:7.893627 9:0.49009416 10:2.1093791 11:1.1073945 12:0.31300429 
1 1 1 1 1 1 1 0 1:-23.842115 2:21.181803 3:5.1541087 4:11.451104 5:3.810615 6:6.8818379 7:4.5388967 8:5.3430897 9:1.1333697 10:2.9759105 11:0.81314513 12:-1.6021576 
1 1 1 1 1 1 1 0.6604628560439697 1:-23.20473 2:24.366729 3:3.8177511 4:13.484927 5:3.0345812 6:8.4749487 7:2.0549971 8:5.2636027 9:1.8438602 10:3.4051514 11:-0.58145568 12:-1.0679736 
1 1 1 1 1 1 1 0.9285190763955137 1:-29.485046 2:26.446784 3:1.0999162 4:16.260523 5:1.8371104 6:10.60047 7:1.9280451 8:8.2846978 9:0.7888862 10:1.4967785 11:1.4300918 12:-1.5135585 
1 1 1 1 1 1 1 1 1:-26.124453 2:25.995468 3:1.6797982 4:14.795989 5:2.1911949 6:10.519091 7:1.3276469 8:4.3213463 9:0.36243418 10:4.3231932 11:0.75607311 12:-1.8441744 
1 1 1 1 1 1 1 0.9993655192181575 1:-28.545454 2:24.883676 3:1.851195 4:14.744422 5:1.4928963 6:11.463006 7:3.806329 8:8.2147462 9:1.6634566 10:1.3033485 11:-1.1753513 12:-3.2312493 
1 1 1 1 1 1 1 0.6180285341256315 1:-23.687252 2:23.511079 3:3.6074987 4:12.447606 5:2.3057324 6:6.2977473 7:1.7402347 8:7.1459931 9:1.4512398 10:1.4999449 11:0.87874586 12:-1.8131452 
1 1 1 1 1 1 1 0.7052223423311897 1:-23.841267 2:21.689033 3:5.6253829 4:9.7090753 5:3.7786146 6:5.9614434 7:0.56751914 8:4.1182386 9:1.2032954 10:3.8379264 11:2.9577007 12:-1.4863299 
1 1 1 1 1 1 1 0.966894676891714 1:-23.729596 2:15.630657 3:5.0550928 4:5.8061874 5:5.4646176 6:5.8717671 7:4.2724416 8:3.4898887 9:-0.43641884 10:2.1810659 11:2.3579164 12:1.1292883 
1 1 1 1 1 1 1 0.6999184236201816 1:-8.8056613 2:13.95712 3:6.773869 4:3.2973373 5:4.0446207 6:1.0916693 7:2.282578 8:3.8018921 9:0.87230041 10:2.4256609 11:2.2636932 12:0.54433917 
1 1 1 1 1 1 1 0.9616037244210449 1:-30.279973 2:18.986177 3:-0.70754977 4:10.67621 5:3.1696095 6:6.3165916 7:1.8040659 8:3.342505 9:1.3739391 10:5.4257758 11:3.7269601 12:-0.47825968 
1 1 1 1 1 1 1 1 1:-35.847594 2:24.934737 3:-0.43666744 4:9.8520574 5:-2.5569768 6:6.4992709 7:6.5297244 8:6.5800565 9:1.1614334 10:4.3522383 11:0.81339833 12:-3.239594 
1 1 1 1 1 1 1 1 1:-34.669222 2:26.815064 3:0.44060789 4:11.917419 5:-0.18366197 6:4.7413316 7:6.794205 8:7.6870878 9:-0.091593407 10:-0.25181885 11:0.018351037 12:-0.28379734 
1 1 1 1 1 1 1 0.7601226855224155 1:-28.323849 2:25.36574 3:-2.063892 4:11.544454 5:0.84910337 6:6.4008866 7:2.6926442 8:5.8122957 9:0.31311526 10:3.3485703 11:1.8372507 12:-0.91436425 
1 1 1 1 1 1 1 1 1:-36.306624 2:26.041572 3:1.9987373 4:15.280309 5:2.5603305 6:4.7573379 7:-2.31962 8:3.3852101 9:-2.6352545 10:3.1170272 11:3.6555776 12:1.3779667 
1 1 1 1 1 1 1 1 1:-37.9318 2:23.932566 3:3.2389883 4:11.72016 5:0.7080458 6:7.9806312 7:1.3165103 8:6.3293183 9:2.4642204 10:3.5879353 11:-1.1259921 12:-3.0856475 
1 1 1 1 1 1 1 0.9162503345600228 1:-32.387424 2:22.818655 3:2.8583816 4:10.898778 5:1.2732146 6:6.7589203 7:3.3937125 8:5.6437325 9:-0.75401543 10:1.179429 11:-2.6075928 12:-2.0886898 
1 1 1 1 1 1 1 1 1:-28.221411 2:24.872977 3:-0.3241034 4:7.8834234 5:-0.047775049 6:9.0375135 7:3.1682977 8:5.6653561 9:-0.54983731 10:2.2769652 11:-1.4520461 12:-1.673874 
1 1 1 1 1 1 1 0.9898845848359315 1:-22.387645 2:13.264401 3:7.2912839 4:5.4517779 5:4.3511209 6:3.5445993 7:2.6400406 8:4.4938583 9:1.0109956 10:0.56870438 11:-1.3248228 12:-0.91200887 
1 1 1 1 1 1 1 0.001940169749935744 1:-12.597284 2:12.677816 3:5.76217 4:4.7099554 5:1.8331968 6:0.72122522 7:0.041793776 8:-0.51572593 9:-1.0587078 10:1.169589 11:0.61429433 12:-0.051867014 
1 1 1 1 1 1 1 0.9203870513584961 1:-3.5989918 2:9.3983791 3:6.2898453 4:4.4600904 5:1.1685172 6:0.54312016 7:1.6644622 8:1.7623958 9:0.98134023 10:0.58109825 11:0.48998969 12:-2.4279075 
1 1 1 1 1 1 1 0.3327309898614556 1:-12.207073 2:13.934306 3:8.0343647 4:5.5441172 5:3.8084647 6:3.2428346 7:1.3191617 8:-0.032593019 9:1.5895397 10:0.55494089 11:-2.2775761 12:-1.0742298 
1 1 1 1 1 1 1 0.6467607713334023 1:0.6020183 2:13.133339 3:7.2380169 4:4.5151007 5:4.4620457 6:3.1258515 7:1.2503413 8:-0.9872822 9:-0.80097768 10:-2.0461223 11:-0.68790273 12:2.2907111 
1 1 1 1 1 1 1 1 1:-36.58503 2:32.279947 3:-3.7953106 4:14.821352 5:4.4452516 6:2.5628128 7:2.9606974 8:-0.28005272 9:3.8241493 10:4.8246959 11:-0.3305405 12:0.90923897 
1 1 1 1 1 1 1 1 1:-31.900111 2:30.798621 3:0.67703657 4:15.359568 5:4.0320698 6:1.6843849 7:4.7023199 8:1.871544 9:3.0224503 10:2.9864217 11:-0.34554739 12:-0.23197104 
1 1 1 1 1 1 1 0.8036170323267665 1:-26.839682 2:27.581844 3:4.955652 4:13.062896 5:5.9108273 6:3.5234591 7:5.0285842 8:2.9944234 9:4.0836015 10:2.1788361 11:0.26753149 12:0.32202964 
1 1 1 1 1 1 1 1 1:-30.752734 2:26.294255 3:5.976696 4:16.357213 5:3.4311639 6:4.5763946 7:7.4072979 8:5.6449303 9:4.3055364 10:-1.2653502 11:-2.0953445 12:0.25140485 
1 1 1 1 1 1 1 1 1:-28.178616 2:25.197591 3:1.3920275 4:16.164442 5:4.9573391 6:7.1226497 7:6.485452 8:6.0324153 9:3.2823745 10:1.039844 11:0.45231754 12:0.22710601 
1 1 1 1 1 1 1 1 1:-32.327531 2:25.87932 3:-0.20400453 4:16.629638 5:3.4081399 6:10.279963 7:5.4901446 8:5.5987421 9:2.9403231 10:3.4479039 11:-0.97122861 12:-1.67433 
1 1 1 1 1 1 1 1 1:-32.8444 2:27.487917 3:-0.11771859 4:17.317863 5:2.9984826 6:6.5462688 7:1.2118918 8:4.6963769 9:-0.35559232 10:3.0169599 11:1.5052861 12:-0.75829224 
1 1 1 1 1 1 1 1 1:-35.879504 2:23.4712 3:1.3307202 4:11.866243 5:2.7489222 6:6.9581929 7:0.026587754 8:4.111062 9:0.82568579 10:4.3839373 11:2.8810326 12:0.33728667 
1 1 1 1 1 1 1 0.8853478738356723 1:-28.92043 2:19.241431 3:0.95403852 4:9.2505235 5:3.2782667 6:5.1368266 7:5.6743069 8:4.3370803 9:-1.0459299 10:5.6517524 11:-0.44255522 12:-1.8376365 
1 1 1 1 1 1 1 0.9424772264082796 1:-30.311148 2:18.179519 3:1.1690739 4:10.92852 5:3.1561162 6:5.7996856 7:5.9855205 8:7.3475672 9:3.4168281 10:4.5109996 11:-0.079259905 12:-0.29456062 
1 1 1 1 1 1 1 1 1:-25.698851 2:20.688928 3:0.47516209 4:11.928454 5:2.3141592 6:6.8474842 7:4.5597563 8:6.2198828 9:2.8866816 10:5.2989119 11:-1.0247396 12:-4.1403941 
1 1 1 1 1 1 1 0.9972439102658882 1:-29.62191 2:21.385568 3:0.56702765 4:14.197201 5:1.4691708 6:10.595346 7:2.6997356 8:5.7296232 9:-0.52777892 10:3.1839238 11:2.2748742 12:-2.5702617 
1 1 1 1 1 1 1 0.9522938758744612 1:-31.112014 2:25.506899 3:-2.4573474 4:13.665865 5:-0.32418097 6:7.7511007 7:2.789566 8:7.3506801 9:2.2305217 10:5.9010051 11:1.0594116 12:-3.5849988 
1 1 1 1 1 1 1 0.5543439537325466 1:-31.411148 2:22.777181 3:-2.2399801 4:14.392409 5:-0.69087062 6:9.0848536 7:2.8591389 8:7.7469325 9:1.6014824 10:3.5108945 11:1.184179 12:-3.6704784 
1 1 1 1 1 1 1 1 1:-35.435315 2:24.666409 3:-0.848677 4:14.160778 5:-1.5944701 6:11.449746 7:2.4261792 8:6.6708822 9:1.4142453 10:0.25333411 11:0.65540676 12:-5.6900419 
1 1 1 1 1 1 1 0.8451509053469187 1:-33.621574 2:23.6187 3:-2.5538176 4:13.866272 5:0.88453795 6:11.157578 7:1.4786852 8:7.1515397 9:1.2410001 10:2.1961759 11:1.0358814 12:-3.7228834 
1 1 1 1 0 1 1 1 1:-28.631813 2:24.904892 3:-3.5748323 4:13.582966 5:-0.37990551 6:8.905156 7:1.7376258 8:4.3393593 9:0.46457405 10:3.0414599 11:3.2290159 12:-3.9705576 
1 1 1 1 0 1 1 1 1:-32.247913 2:20.864286 3:-0.96427902 4:11.058163 5:2.1684153 6:8.0961447 7:5.3685231 8:7.9134188 9:-0.66474183 10:2.2125262 11:1.4966627 12:-3.3842994 
1 1 1 1 0 1 1 1 1:-19.646164 2:14.732712 3:10.899565 4:6.5557984 5:1.4105531 6:2.6844976 7:3.3665489 8:2.3123671 9:-1.557107 10:0.50410865 11:0.43771744 12:0.45143663 
1 1 1 1 0 1 1 0.4642088676514069 1:-4.5843597 2:10.093961 3:5.2189968 4:3.442323 5:3.636255 6:1.4952447 7:2.4748639 8:2.1255891 9:-1.3558108 10:-1.882641 11:-2.7352767 12:-2.5083159 
1 1 1 1 0 1 1 0.9983625834134788 1:-9.3653746 2:11.751504 3:7.2114712 4:7.3722938 5:6.0066746 6:1.7622984 7:-1.3511388 8:-1.1259594 9:-2.0301135 10:-0.35266476 11:-2.3875651 12:-1.0995121 
1 1 1 1 0 1 1 0.9379563141307977 1:-31.514609 2:18.430499 3:1.2990634 4:10.742197 5:0.69796054 6:3.5687751 7:2.9287123 8:4.5887677 9:2.8797585 10:4.9702731 11:1.8455733 12:-2.6901805 
1 1 1 1 0 1 1 0.9132898045248447 1:-21.488364 2:21.066149 3:2.2143542 4:8.5501306 5:2.9476101 6:3.1653885 7:5.2983424 8:3.6403277 9:0.16392735 10:0.90053301 11:1.3337996 12:0.91492526 
1 1 1 1 0 1 1 1 1:-22.142022 2:24.736529 3:4.6861498 4:5.9613895 5:2.7131587 6:7.2040785 7:5.8662266 8:4.7227569 9:-0.79984749 10:3.4886658 11:2.2646794 12:-1.5730039 
1 1 1 1 0 1 1 1 1:-25.038919 2:28.420185 3:5.3789044 4:12.684619 5:2.5189077 6:4.2835455 7:7.006563 8:1.8940093 9:-0.37442033 10:2.0190849 11:-0.39431092 12:-0.88095449 
1 1 1 1 0 1 1 0.9018216457378707 1:-35.209324 2:33.804929 3:1.3668695 4:16.620014 5:3.2893621 6:4.1756777 7:8.8481608 8:4.309455 9:2.6775541 10:1.5169093 11:-0.43816174 12:-0.17082559 
1 1 1 1 0 1 1 1 1:-34.991077 2:32.722163 3:0.93781516 4:18.868296 5:2.1647571 6:5.4186866 7:5.985082 8:5.422569 9:2.1331028 10:2.424983 11:0.14122892 12:-1.8674643 
1 1 1 1 0 1 1 1 1:-28.85199 2:31.893646 3:1.4828825 4:12.283387 5:3.9668329 6:8.2492917 7:7.6039936 8:2.6092035 9:1.2218468 10:2.7876879 11:-0.76882567 12:0.2476837 
1 1 1 1 0 1 1 1 1:-36.133631 2:34.946937 3:-1.7733624 4:16.534019 5:4.4629324 6:4.1933046 7:10.413286 8:5.2088791 9:2.3573177 10:1.1732226 11:-1.1201411 12:-0.85406985 
1 1 1 1 0 1 1 1 1:-38.213698 2:26.271589 3:4.0182361 4:14.132476 5:6.8033219 6:6.4231929 7:9.9051639 8:4.200317 9:2.6505864 10:3.7864227 11:-0.18979769 12:-2.4705831 
1 1 1 1 0 1 1 0.7933684200083063 1:-26.114005 2:26.445845 3:3.7441372 4:10.639943 5:8.44742 6:3.659419 7:3.8575245 8:1.4794041 9:1.7250169 10:3.2273152 11:1.6537615 12:0.48983595 
1 1 1 1 0 1 1 0 1:-29.214756 2:22.563653 3:2.9075864 4:8.435463 5:6.457858 6:3.2022612 7:4.1223472 8:2.1358017 9:1.6422538 10:2.4598838 11:0.76565817 12:0.56836452 
1 1 1 1 0 1 1 1 1:-35.088028 2:23.603879 3:-1.2574977 4:7.8871548 5:1.6526343 6:4.7640521 7:6.235119 8:3.3701458 9:2.6656112 10:2.7619254 11:1.808357 12:0.43744106 
1 1 1 1 0 1 1 0.4876011663342312 1:-31.360371 2:24.815158 3:-0.089278349 4:11.667123 5:5.9437023 6:5.5194058 7:6.272709 8:3.4763155 9:-0.36417752 10:0.47240326 11:-0.086335498 12:0.32074806 
1 1 1 1 0 1 1 1 1:-34.924163 2:27.822659 3:-2.642152 4:13.416067 5:3.2287207 6:5.31518 7:7.6352235 8:6.0642438 9:1.2078213 10:1.3918379 11:2.2969728 12:-0.88447524 
1 1 1 1 0 1 1 1 1:-38.093571 2:26.703495 3:-5.4295618 4:15.590656 5:0.64536701 6:7.1626024 7:9.3415848 8:6.9785255 9:6.182493 10:2.9209365 11:2.4711127 12:-1.5306934 
1 1 1 1 0 1 1 1 1:-36.038358 2:28.734988 3:-5.4259346 4:13.794389 5:1.2078177 6:11.548355 7:6.7420689 8:0.96229673 9:3.0630403 10:1.7325758 11:0.8750078 12:-1.4793829 
1 1 1 1 0 1 1 1 1:-33.622749 2:23.215258 3:-3.2475076 4:12.937216 5:5.0137568 6:9.4950464 7:4.5847788 8:1.9818209 9:1.2993579 10:1.1951234 11:1.1278181 12:0.69174809 
1 1 1 1 0 1 1 1 1:-36.162508 2:20.962755 3:-1.7896179 4:13.37761 5:2.9229731 6:7.7810315 7:3.9337424 8:2.6355611 9:3.7401096 10:1.6112323 11:1.8422623 12:1.2747565 
1 1 1 1 0 1 1 0.6192953141535609 1:-27.234889 2:20.073307 3:0.45340537 4:9.6858149 5:2.6156843 6:3.6052025 7:3.6305036 8:4.2657228 9:3.3130264 10:3.7926067 11:2.6964424 12:-0.29367562 
1 1 1 1 0 1 1 0 1:-7.9984404 2:14.160192 3:5.8272005 4:3.2592272 5:3.8273414 6:0.54447555 7:0.68838393 8:0.91585965 9:-0.078366962 10:1.8737126 11:0.68829689 12:-2.2691701 
1 1 1 1 0 1 1 0.09926612065742067 1:-3.5610786 2:10.519517 3:6.9342118 4:3.077421 5:3.4567967 6:2.4572361 7:1.1355845 8:0.74212842 9:0.14384388 10:-1.621372 11:-1.8982429 12:-0.027561428 
1 1 1 1 0 1 1 0.4990643200119297 1:-6.7748611 2:12.834149 3:4.8462378 4:2.1958792 5:3.1930648 6:-0.35406418 7:-0.11467439 8:-1.9967446 9:-5.1960773 10:-3.6704951 11:-1.4719804 12:-0.47466662 
1 1 1 1 0 1 1 0.06589973670836094 1:-5.4595573 2:11.164843 3:4.5050202 4:1.7508332 5:2.2190259 6:-0.036100163 7:-0.49848108 8:-3.0159862 9:-4.882303 10:-5.0665349 11:-3.2152342 12:0.46819041 
1 1 1 1 0 1 1 0.9305352195337628 1:-25.446053 2:15.26742 3:4.6717329 4:9.8716811 5:4.9386601 6:3.106297 7:3.3145815 8:2.5648877 9:-0.42180779 10:1.3979168 11:-0.02748002 12:-1.7155049 
1 1 1 1 0 1 1 0.7032777811852266 1:-23.891296 2:19.495501 3:4.9063273 4:12.677117 5:5.6860715 6:5.376072 7:2.8555174 8:4.1992847 9:2.7539293 10:1.9130317 11:0.10107637 12:-0.082599439 
1 1 1 1 0 1 1 0.6448963158129788 1:-25.675165 2:24.479029 3:5.9732325 4:12.202616 5:2.2913372 6:8.047027 7:5.0392997 8:6.3494367 9:0.61377983 10:1.4439533 11:1.3335437 12:-1.7572434 
1 1 1 1 0 1 1 0.7457674869293823 1:-24.315346 2:25.793621 3:6.4197105 4:13.575812 5:4.4956252 6:6.1309322 7:2.5933662 8:7.0098411 9:1.5191066 10:3.7027614 11:0.44686812 12:-1.4345216 
1 1 1 1 0 1 1 1 1:-24.290796 2:18.255568 3:7.9312808 4:14.693047 5:12.306649 6:9.0256145 7:5.0499413 8:4.6542267 9:-1.0836463 10:0.77272997 11:-0.91373801 12:-1.1078977 
1 1 1 1 0 1 1 0.8264135512014162 1:-24.301455 2:20.448025 3:8.1275062 4:10.196752 5:9.0600903 6:7.2114989 7:7.5088502 8:6.486479 9:3.1339691 10:3.7320309 11:-1.0259286 12:-0.50279449 
1 1 1 1 0 1 1 0.8904038760214001 1:-22.651081 2:21.553403 3:6.4968466 4:10.239095 5:8.682584 6:7.6968369 7:9.0964445 8:6.8318503 9:3.0732107 10:3.7204234 11:-0.2285379 12:-2.8507202 
1 1 1 1 0 1 1 0.7517904076242673 1:-24.439816 2:26.53844 3:4.1397027 4:16.193847 5:5.8483626 6:6.851641 7:7.0785906 8:3.9487683 9:1.2478751 10:1.7532093 11:-1.36801 12:-0.47435311 
1 1 1 1 0 1 1 0.8568601009465616 1:-25.919397 2:28.400227 3:4.0307511 4:16.974559 5:5.6812982 6:5.5107717 7:4.3509514 8:2.5930158 9:0.96080457 10:1.6443881 11:-0.40043105 12:-0.4296855 
1 1 1 1 0 1 1 0.7545317930743625 1:-29.505933 2:22.737401 3:5.3980785 4:12.958271 5:7.0394174 6:6.5295953 7:6.9304799 8:4.5254321 9:0.47294762 10:2.2012503 11:1.5184405 12:1.4167037 
1 1 1 1 0 1 1 0.6898962993818307 1:-29.561731 2:21.577211 3:1.873407 4:11.42156 5:6.0562467 6:4.8916025 7:8.2671172 8:5.8289987 9:1.0100922 10:3.2750133 11:-0.33562017 12:-0.096241167 
1 1 1 1 0 1 1 1 1:-37.194499 2:27.572268 3:-3.015432 4:13.790921 5:3.2815647 6:2.3705929 7:5.3596721 8:5.6554308 9:3.1902116 10:5.7952885 11:0.39296423 12:-0.59150287 
1 1 1 1 0 1 1 1 1:-38.355646 2:29.860573 3:-3.9112518 4:16.30294 5:2.7630852 6:8.6516399 7:5.2472281 8:2.2914167 9:1.094466 10:3.0810734 11:-0.33110485 12:-0.98857206 
1 1 1 1 0 1 1 1 1:-31.770807 2:26.387212 3:-2.1532818 4:13.657152 5:3.4531615 6:5.8225267 7:8.5841647 8:6.2539531 9:0.20276227 10:0.74041454 11:-0.57720014 12:-3.6465406 
1 1 1 1 0 1 1 1 1:-35.470105 2:30.685383 3:-2.924455 4:14.205692 5:-1.0619584 6:7.2124518 7:7.1988517 8:2.411118 9:0.034831329 10:0.74719724 11:2.0825602 12:-1.6950994 
1 1 1 1 0 1 1 1 1:-34.874707 2:30.471272 3:-4.82866 4:14.27367 5:-0.14366623 6:3.8545335 7:3.5989144 8:1.2689022 9:4.3054575 10:0.63372187 11:2.0151905 12:-1.5657024 
1 1 1 1 0 1 1 0 1:1.262534 2:12.36507 3:6.1786262 4:3.6228548 5:3.0591493 6:1.1715943 7:1.1668541 8:-0.17883118 9:-0.68031539 10:-0.31771178 11:-0.58745948 12:-0.92982813 
1 1 1 1 0 1 1 1 1:-30.649915 2:19.797755 3:-0.39163173 4:9.6819344 5:4.2125665 6:2.7320797 7:8.2400084 8:5.5279401 9:0.0090828985 10:-1.3413579 11:0.989997 12:1.4112909 
1 1 1 1 0 1 1 0.6527767772812095 1:-28.885612 2:17.169731 3:3.0254736 4:10.227848 5:5.9093193 6:3.0712691 7:6.457953 8:2.038314 9:1.6829291 10:2.6669483 11:1.1627537 12:-0.094653685 
1 1 1 1 0 1 1 1 1:8.1447564 2:13.011256 3:7.6671553 4:3.4702158 5:2.4988897 6:1.2420885 7:1.723868 8:1.1259706 9:0.86163591 10:-0.87996675 11:-1.3598353 12:0.47435961 
1 1 1 1 0 1 1 1 1:5.7935281 2:15.208439 3:8.6249309 4:2.9763664 5:0.92009183 6:1.2128123 7:2.1009682 8:-1.3680439 9:-1.5461818 10:-0.4591814 11:-1.4768163 12:-0.24960113 
1 1 1 1 0 1 1 0.54190622603525 1:-12.018353 2:12.44045 3:7.5351261 4:5.8161437 5:1.7325762 6:-1.1930467 7:1.3221894 8:1.2903963 9:1.1529622 10:0.052855446 11:-2.2955608 12:-1.6057651 
1 1 1 1 0 1 1 0.6678740014868626 1:-16.917729 2:13.858952 3:7.8551028 4:5.8261148 5:3.7468667 6:2.831662 7:2.693642 8:3.4410064 9:0.6382028 10:-1.4128976 11:-2.0275335 12:-2.3811856 
1 1 1 1 0 1 1 0.6312553221403977 1:-30.42173 2:22.084234 3:-0.41100478 4:11.110717 5:2.6812595 6:3.6459444 7:2.3344329 8:7.0440913 9:2.3469204 10:3.3957329 11:1.7662358 12:-1.262947 
1 1 1 1 0 1 1 0.9148135218929934 1:-31.225672 2:22.357528 3:2.2362238 4:11.309619 5:1.1870723 6:3.2615497 7:0.55365693 8:5.8062718 9:1.5106897 10:0.97096436 11:1.328542 12:-3.1951976 
1 1 1 1 0 1 1 0.5220658952590103 1:-27.905313 2:22.264242 3:2.2762683 4:13.60973 5:3.1852795 6:3.4271237 7:2.343514 8:4.7921945 9:2.9947248 10:2.1216382 11:0.21289549 12:-2.9188071 
1 1 1 1 0 1 1 1 1:-22.274874 2:22.76008 3:5.6080847 4:13.754355 5:6.914154 6:4.7627939 7:0.84026036 8:1.5803671 9:2.2354786 10:4.2602727 11:3.5465756 12:-0.56772216 
1 1 1 1 0 1 1 1 1:-19.779334 2:22.097266 3:6.8039891 4:12.895302 5:5.2842081 6:6.0087227 7:3.8130518 8:5.5422828 9:5.4292867 10:5.1545058 11:0.87478759 12:-1.5645511 
1 1 1 1 0 1 1 1 1:-16.686758 2:24.169034 3:3.1151759 4:12.151231 5:6.4437279 6:10.149588 7:5.1185596 8:4.9611771 9:2.9003554 10:1.7086648 11:1.0646829 12:-1.5836239 
1 1 1 1 0 1 1 0.921897129460619 1:-23.414927 2:28.261727 3:4.667751 4:15.38773 5:5.8581036 6:7.3353544 7:5.3965525 8:5.4508366 9:0.25622036 10:0.089534285 11:1.5741231 12:-2.4433014 
1 1 1 1 0 1 1 0 1:-18.465288 2:23.118911 3:9.7407854 4:11.685499 5:7.9730753 6:7.2402914 7:6.2691278 8:2.8654543 9:1.7562303 10:1.6932609 11:-0.89372079 12:-2.5910522 
1 1 1 1 0 1 1 0.9213848081068713 1:-18.738388 2:20.530512 3:8.2226502 4:11.98241 5:9.4381524 6:8.0418218 7:6.626447 8:3.8356356 9:1.2036015 10:2.374234 11:-0.30498902 12:-2.7272336 
1 1 1 1 0 1 1 0.9910176187913218 1:-28.216573 2:22.695712 3:6.9179164 4:12.061779 5:6.6824174 6:9.3179349 7:6.1528165 8:2.6609229 9:1.7070825 10:5.5454866 11:1.4975145 12:-2.9087704 
1 1 1 1 0 1 1 0.973984740685767 1:-29.727231 2:24.453239 3:2.4708218 4:12.62863 5:2.8613097 6:6.9461127 7:4.7130732 8:4.7047859 9:-1.7359329 10:0.87088803 11:3.5234819 12:-0.42118228 
1 1 1 1 0 1 1 0.9739294913228643 1:-36.294382 2:21.535375 3:0.24660897 4:11.339975 5:4.1403835 6:4.892 7:4.842345 8:4.5022531 9:1.8713617 10:2.7036551 11:0.78799857 12:2.2807963 
1 1 1 1 0 1 1 0.9396051380269715 1:-3.5608181 2:13.545055 3:8.0783389 4:4.4307712 5:2.6692448 6:0.34468398 7:-0.47463872 8:-1.241054 9:0.70228197 10:3.1318887 11:0.31360665 12:-2.3224051 
1 1 1 1 0 1 1 1 1:-27.791562 2:15.936972 3:1.3480879 4:7.5351714 5:8.8608162 6:4.4088858 7:4.0881156 8:2.3126106 9:1.0379318 10:3.546117 11:0.81757931 12:-0.33434684 
1 1 1 1 0 1 1 0.7851222552424284 1:-0.99894255 2:10.936108 3:5.8414832 4:3.6413913 5:2.3083982 6:-0.85790527 7:-1.4288704 8:-3.0099483 9:-2.0696244 10:-0.15868876 11:-0.7064049 12:1.3124772 
1 1 1 1 0 1 1 0.6276220266372533 1:-20.244235 2:15.494566 3:5.3022781 4:6.8377711 5:6.169878 6:2.0748555 7:2.4999547 8:1.1584177 9:-1.0711267 10:1.5667001 11:-0.38812468 12:-0.15295332 
1 1 1 1 0 1 1 0.5692484333646575 1:-10.747021 2:13.240007 3:7.6153995 4:2.9594953 5:2.4787592 6:2.089691 7:2.6314626 8:-0.67820863 9:-3.1207995 10:0.95279896 11:0.972235 12:-0.57853557 
1 1 1 1 0 1 1 0.6092875714410885 1:-11.448186 2:10.390079 3:7.7152457 4:5.3555706 5:1.7157993 6:0.17242795 7:0.043781525 8:-1.064278 9:-1.6375885 10:0.20351544 11:0.013302216 12:0.24107108 
1 1 1 1 0 1 1 1 1:-3.0485521 2:9.320615 3:4.9239458 4:1.4084535 5:2.3894016 6:-0.85485385 7:-2.802294 8:-4.1773851 9:-6.4201404 10:-4.2570576 11:-2.1665692 12:1.6782785 
1 1 1 1 0 1 1 0.6957943874959633 1:-4.1339974 2:11.525954 3:6.1822879 4:1.4293961 5:-0.50132458 6:-1.21278 7:0.59744911 8:-0.061178672 9:-3.9520538 10:-4.1155517 11:-2.5336147 12:-0.24044263 
1 1 1 1 0 1 1 0.7655618951330671 1:-13.657048 2:15.67647 3:6.3561012 4:6.3937299 5:3.5674478 6:0.5621175 7:3.4947146 8:3.7220198 9:2.5332623 10:0.0073121527 11:-0.99995334 12:-0.21383764 
1 1 1 1 0 1 1 0 1:-25.872611 2:23.090277 3:5.3540126 4:10.752702 5:4.6855672 6:4.8583609 7:3.9130568 8:4.005895 9:0.85319089 10:0.46976536 11:1.9630486 12:-0.72204721 
1 1 1 1 0 1 1 0.7639286987072307 1:-29.168208 2:22.800234 3:4.3607557 4:12.421765 5:7.4010626 6:6.7913498 7:3.2440923 8:4.2247308 9:2.7999833 10:2.7944915 11:3.159647 12:-1.4424974 
1 1 1 1 0 1 1 0.6757963386330608 1:-24.017373 2:24.098641 3:6.9566065 4:10.979587 5:5.7535848 6:7.2783696 7:5.7546146 8:5.7379122 9:2.0144119 10:1.3390746 11:2.987366 12:-1.9509243 
1 1 1 1 0 1 1 1 1:-28.234141 2:30.455877 3:4.1657621 4:18.193395 5:4.6188507 6:9.1116417 7:4.3351841 8:0.97636641 9:4.2338475 10:1.6724887 11:0.00043007685 12:-2.1650563 
1 1 1 1 0 1 1 0.1872433376012598 1:-11.941702 2:22.198731 3:11.985509 4:9.3707596 5:6.8629852 6:6.6187891 7:6.7335684 8:3.3919159 9:2.0200773 10:1.9699359 11:0.95914878 12:-1.4193124 
1 1 1 1 0 1 1 0.3464401494571331 1:-6.2983155 2:19.302899 3:11.347625 4:9.6818701 5:8.286119 6:6.7674495 7:6.6819117 8:4.0406377 9:3.1064548 10:2.9356006 11:0.44778527 12:-1.937301 
1 1 1 1 0 1 1 1 1:-13.816931 2:23.183651 3:11.009785 4:13.267808 5:10.265298 6:3.9744034 7:4.0582608 8:5.5696771 9:3.5616791 10:1.2442911 11:0.37753984 12:-0.53658272 
1 1 1 1 0 1 1 1 1:-16.26917 2:25.016737 3:7.6903487 4:13.328463 5:10.899604 6:7.8482315 7:7.6888284 8:2.8413688 9:0.20309157 10:3.6359278 11:-2.1557047 12:-4.025754 
1 1 1 1 0 1 1 0.134694318611645 1:-11.596314 2:21.352495 3:10.387205 4:11.325832 5:9.0273206 6:5.9566532 7:6.6601332 8:4.8123568 9:2.6657431 10:0.38348011 11:-1.5634438 12:-1.0208503 
1 1 1 1 0 1 1 0.5307715260639103 1:-20.394215 2:25.476164 3:6.6149256 4:9.2634545 5:8.5465409 6:5.8511064 7:4.9240371 8:3.5801634 9:3.066265 10:2.5232505 11:0.78354327 12:-1.2074047 
1 1 1 1 0 1 1 0.8621697095673722 1:-18.414196 2:14.93686 3:8.1786821 4:6.1132713 5:4.5768337 6:4.7861489 7:5.6485161 8:2.2983404 9:1.5915114 10:2.469244 11:-0.11056768 12:-2.8233892 
1 1 1 1 0 1 1 1 1:-22.377749 2:17.544477 3:8.0221884 4:8.4275818 5:4.1296741 6:4.8328064 7:6.3882776 8:0.50025487 9:0.77249268 10:2.0616783 11:2.0812322 12:0.58931847 
1 1 1 1 0 1 1 0.6676952379277384 1:-32.644508 2:22.27338 3:3.4272067 4:9.2940407 5:6.8172993 6:5.8311676 7:5.6450765 8:1.5195666 9:5.1684654 10:3.3522425 11:0.34485585 12:0.12928952 
1 1 1 1 0 1 1 1 1:-39.454769 2:31.217286 3:-0.087489586 4:14.336993 5:2.5541715 6:2.1765971 7:8.0134783 8:1.8283646 9:1.9180572 10:0.58464198 11:3.1427345 12:-0.43034021 
1 1 1 1 0 1 1 0.748587017347654 1:-31.658809 2:22.233153 3:4.1444031 4:13.436379 5:8.2175348 6:3.4983855 7:3.7593287 8:0.61189902 9:3.2069824 10:1.6552425 11:0.55062746 12:-0.24883883 
1 1 1 1 0 1 1 0 1:-26.413913 2:24.665659 3:5.6331262 4:10.038417 5:5.3628122 6:3.6199782 7:4.8957449 8:1.6776578 9:3.539167 10:1.1912584 11:-0.45883898 12:-1.1945811 
1 1 1 1 0 1 1 0.9082588010195499 1:-31.33125 2:30.16542 3:-3.4752834 4:11.911599 5:5.7582538 6:3.0009535 7:4.7170272 8:0.18825665 9:4.2409334 10:0.77545387 11:-1.8524144 12:-0.73192668 
1 1 1 1 0 1 1 0.6232855273357821 1:-32.357189 2:24.717598 3:-1.0577103 4:10.976975 5:3.5585436 6:2.997973 7:4.8167568 8:0.36534534 9:0.18130032 10:-0.22443773 11:0.51813827 12:0.32970159 
1 1 1 1 0 1 1 1 1:-43.664167 2:29.846183 3:-7.6092194 4:15.595988 5:-0.63293529 6:2.972914 7:8.3052102 8:2.6516831 9:6.8191045 10:0.67868717 11:2.0743927 12:-1.157519 
1 1 1 1 0 1 1 1 1:-39.364867 2:28.912511 3:-5.520185 4:13.625476 5:3.5491148 6:6.0196147 7:6.5627543 8:1.3659278 9:6.5893503 10:1.1843625 11:1.9615237 12:-2.5666971 
1 1 1 1 0 1 1 1 1:-43.375662 2:32.89443 3:-2.6162541 4:15.137411 5:-1.8690249 6:4.0935489 7:8.4923867 8:0.13962971 9:7.3664733 10:1.2405721 11:3.7028081 12:-2.8517561 
1 1 1 1 0 1 1 0.9547423709100609 1:-37.406116 2:25.998674 3:1.1398077 4:11.853258 5:3.5211821 6:2.1557935 7:4.870497 8:0.93382694 9:3.7647685 10:2.3129113 11:0.15503914 12:-0.76646223 
1 1 1 1 0 1 1 0.7502771072982104 1:-6.6657335 2:13.221672 3:7.0315228 4:5.0884975 5:3.6060465 6:2.0683773 7:-0.072835774 8:-3.5263193 9:-2.2738482 10:0.10351427 11:0.94561054 12:-0.87170164 
1 1 1 1 0 1 1 0.6215489025178534 1:-28.031771 2:23.074216 3:2.0961195 4:10.548967 5:4.3761033 6:6.9252182 7:2.8835324 8:6.6415244 9:2.3596842 10:2.0186393 11:1.3585823 12:-4.3434937 
1 1 1 1 0 1 1 0.5979205195510612 1:-27.325659 2:27.307842 3:2.9700115 4:12.942144 5:3.1524143 6:8.4202769 7:3.3858586 8:4.6649571 9:2.9787521 10:2.5638343 11:2.4561921 12:-2.8222587 
1 1 1 1 0 1 1 0.4599934648422285 1:-15.831276 2:23.145183 3:10.710759 4:11.650048 5:7.5113969 6:5.7489303 7:4.4305115 8:2.1148966 9:1.543075 10:1.2707802 11:0.78506979 12:-3.0868822 
1 1 1 1 0 1 1 0.6517607982772037 1:-10.60895 2:22.497629 3:11.964625 4:9.5120993 5:8.8311927 6:6.2754104 7:5.4561819 8:4.2746433 9:1.6268502 10:-0.7336729 11:0.19027521 12:0.61387463 
1 1 1 1 0 1 1 1 1:-25.994836 2:30.936234 3:7.9139601 4:20.750304 5:7.2647124 6:9.2249425 7:-0.13497855 8:2.8296045 9:2.2456925 10:1.8890618 11:-0.64077246 12:-4.655423 
1 1 1 1 0 1 1 0 1:-3.6561608 2:20.579118 3:13.491897 4:9.829405 5:9.0862837 6:7.1459455 7:5.8655873 8:4.2510029 9:1.9500511 10:1.2278895 11:0.54801453 12:-1.4522473 
1 1 1 1 0 1 1 0 1:1.2963673 2:19.883642 3:13.478438 4:9.6170919 5:8.0275424 6:6.376535 7:6.3339157 8:4.4394512 9:2.0621296 10:0.23883969 11:-0.46412191 12:-0.85993442 
1 1 1 1 0 1 1 1 1:-18.750633 2:28.555747 3:11.391257 4:12.814789 5:6.4665013 6:7.6766261 7:7.1385686 8:1.2691655 9:2.3427154 10:2.8167269 11:1.7043439 12:-2.8588298 
1 1 1 1 0 1 1 0.9012002419976836 1:-10.720369 2:19.60043 3:12.305108 4:10.320656 5:8.6283373 6:7.7350619 7:6.2073031 8:5.4968573 9:4.5255382 10:1.9983196 11:-0.50409248 12:-4.0051135 
1 1 1 1 0 1 1 0.2518774549618105 1:-13.413992 2:18.723868 3:11.647083 4:11.628843 5:7.056019 6:5.1107022 7:5.3330134 8:3.9686089 9:2.592633 10:1.6958952 11:-1.6898332 12:-1.9805107 
1 1 1 1 0 1 1 1 1:-31.208053 2:28.350233 3:3.1970612 4:14.568936 5:1.7850446 6:5.965686 7:2.1274136 8:0.5257566 9:-3.4755273 10:3.2193528 11:0.36479817 12:-4.0680179 
1 1 1 1 0 1 1 0 1:-22.613746 2:21.518768 3:6.854476 4:7.9862929 5:6.4769381 6:6.6075282 7:4.2907135 8:3.4949872 9:3.3218845 10:1.8818336 11:0.67953207 12:-2.3325354 
1 1 1 1 0 1 1 1 1:-28.179549 2:29.363778 3:-2.4330166 4:13.656524 5:3.4199483 6:8.0210312 7:4.9939617 8:3.6258103 9:5.7360044 10:0.98594383 11:0.92093853 12:-4.3021435 
1 1 1 1 0 1 1 0.8984072862652538 1:-23.61216 2:20.647978 3:2.451651 4:10.831888 5:5.8196325 6:4.3472674 7:6.4827317 8:1.5776667 9:0.29660801 10:-1.6198232 11:-1.8181953 12:-0.27359933 
1 1 1 1 0 1 1 0.1316990870853709 1:-26.916723 2:18.395147 3:5.0552463 4:9.7929133 5:5.5705433 6:4.0918409 7:6.3464208 8:2.3120546 9:2.0704364 10:2.4579262 11:1.0439641 12:-0.30936081 
1 1 1 1 0 1 1 0.9495288911860256 1:-31.795678 2:25.162462 3:1.342392 4:14.703295 5:5.7130921 6:5.5914394 7:6.1930769 8:3.2930328 9:2.3665106 10:-1.1215641 11:1.4572637 12:0.43648991 
1 1 1 1 0 1 1 0.4694656651271054 1:-26.663988 2:24.828166 3:3.0003542 4:7.6230515 5:5.2915543 6:5.6084209 7:6.8861361 8:3.3280257 9:2.6559852 10:2.3429591 11:0.99964657 12:-1.8114526 
1 1 1 1 0 1 1 0.7842481553195119 1:-31.76209 2:18.892364 3:3.2570976 4:11.124239 5:6.2406372 6:3.9486694 7:7.4433045 8:2.8475609 9:4.0641882 10:3.9200552 11:-0.6599266 12:-0.98457446 
1 1 1 1 0 1 1 0.9716710103960371 1:-36.046896 2:26.136349 3:-2.6551304 4:11.383132 5:5.8380579 6:2.8172223 7:3.8823254 8:0.12761552 9:3.6620959 10:1.4708554 11:-1.5276187 12:0.50565558 
1 1 1 1 0 1 1 0.9035173097072533 1:-17.48773 2:14.1049 3:7.3397062 4:4.6642381 5:4.85879 6:1.9979314 7:2.7549681 8:2.9114442 9:-1.2449218 10:-2.908234 11:0.36140731 12:0.92352531 
1 1 1 1 0 1 1 0.7677265716732454 1:-23.236913 2:15.802998 3:4.6246775 4:6.6383283 5:5.4806905 6:1.6112831 7:2.7310588 8:2.1292381 9:1.83524 10:1.7374781 11:1.2067359 12:0.39439328 
1 1 1 1 0 1 1 1 1:-35.150081 2:27.028088 3:0.33526357 4:15.782806 5:5.1699182 6:0.27788927 7:3.8945376 8:-0.60279698 9:2.2716959 10:1.9853515 11:0.21338616 12:-1.2906713 
1 1 1 1 0 1 1 1 1:-26.588194 2:30.008236 3:-9.3119428 4:9.2930789 5:4.7343097 6:8.2637382 7:8.4390976 8:-1.3092163 9:3.6249423 10:1.6329038 11:-0.59281793 12:-0.39838455 
1 1 1 1 0 1 1 1 1:-28.082053 2:25.461053 3:-4.3372905 4:10.387397 5:5.6899941 6:3.2511855 7:4.204147 8:1.1572565 9:4.6672586 10:3.4910704 11:0.41631545 12:-0.97784152 
1 1 1 1 0 1 1 0.8186649255618747 1:-32.418381 2:24.375148 3:-1.2239824 4:9.7571277 5:5.2093261 6:6.3810321 7:6.20122 8:-1.7241593 9:1.2094053 10:2.405143 11:0.25987017 12:-2.0764012 
1 1 1 1 0 1 1 1 1:-33.728354 2:25.81833 3:2.0380252 4:9.4132788 5:1.7179908 6:2.528599 7:1.4727976 8:-1.0823245 9:4.9725604 10:2.8550165 11:-1.3509663 12:-2.0855738 
1 1 1 1 0 1 1 1 1:-32.185994 2:26.456238 3:-2.4824525 4:7.7348615 5:2.2806794 6:2.1126024 7:4.9136385 8:0.11511667 9:0.45993495 10:-1.0391456 11:-1.6020278 12:-0.70824347 
1 1 1 1 0 1 1 0.4572836651322723 1:-29.379913 2:23.401599 3:4.0557734 4:9.3209764 5:2.6024877 6:4.5413271 7:6.4448621 8:2.5408188 9:4.9660144 10:1.4631147 11:-0.061813696 12:0.53551943 
1 1 1 1 0 1 1 0.6196058267354035 1:-24.953135 2:22.355143 3:8.7098087 4:11.70718 5:4.9817967 6:5.2756269 7:6.9491577 8:4.086106 9:3.0384793 10:-0.10761558 11:-1.0964865 12:-2.2492854 
1 1 1 1 0 1 1 0.9077988675218214 1:-12.681356 2:22.690784 3:10.143897 4:9.0757917 5:6.1744013 6:7.0245543 7:4.9480265 8:2.0567313 9:2.3069492 10:1.6626074 11:2.3526611 12:0.63016379 
1 1 1 1 0 1 1 1 1:-26.841458 2:27.710438 3:8.2122662 4:16.411433 5:5.6020996 6:9.232296 7:6.317001 8:3.7480381 9:3.7494061 10:1.73842 11:-0.49126041 12:-3.7546552 
1 1 1 1 0 1 1 0 1:-3.8390497 2:20.554594 3:13.041074 4:10.700944 5:7.710318 6:5.7892815 7:5.2840474 8:3.0600123 9:2.8514541 10:1.2432883 11:-0.76178399 12:-1.6547256 
1 1 1 1 0 1 1 0.2865106874630308 1:2.5663657 2:18.960347 3:13.819128 4:10.308568 5:8.1939432 6:5.7752821 7:4.9131899 8:3.632416 9:3.0171684 10:1.5261129 11:-1.106079 12:-1.4653079 
1 1 1 1 0 1 1 1 1:-23.218572 2:32.605323 3:7.8479216 4:17.632953 5:6.7841616 6:9.584925 7:6.5914943 8:1.3221279 9:1.2613474 10:0.54938962 11:-2.354364 12:-2.0963545 
1 1 1 1 0 1 1 0.5741917034043349 1:0.82596949 2:18.713256 3:12.399884 4:10.086738 5:10.059579 6:7.599259 7:5.9522873 8:3.5205352 9:2.6916076 10:2.0524393 11:-0.31260354 12:-2.5355513 
1 1 1 1 0 1 1 0 1:-3.9882016 2:21.712509 3:12.363395 4:9.5632094 5:9.0302625 6:7.0486078 7:5.7304785 8:2.6937257 9:1.9403944 10:0.98453376 11:-1.2820645 12:-1.8913052 
1 1 1 1 0 1 1 0.8534628022504313 1:-19.899991 2:25.206066 3:10.139147 4:12.869106 5:9.4003536 6:6.7312026 7:4.0163154 8:1.2894984 9:1.5212627 10:0.88743297 11:0.68981865 12:-1.2051677 
1 1 1 1 0 1 1 0.554322967550942 1:-14.232999 2:17.819151 3:9.460563 4:7.9177998 5:7.5143399 6:5.8366113 7:4.1617764 8:2.5328138 9:2.9783831 10:1.4991089 11:0.19637784 12:-1.2893615 
1 1 1 1 0 1 1 0.9607538453251963 1:-27.851881 2:23.657926 3:7.0084671 4:13.676646 5:7.8129905 6:3.8924067 7:2.8944033 8:0.99386224 9:4.0095992 10:1.0740208 11:-0.27510844 12:-1.7021525 
1 1 1 1 0 1 1 0.3143921527568306 1:-20.03698 2:23.021926 3:8.5023315 4:8.7250118 5:6.171393 6:3.2119547 7:4.091137 8:3.1155623 9:2.8966266 10:1.6572798 11:1.0192667 12:-0.27856206 
1 1 1 1 0 1 1 0.7864911626979898 1:-19.196319 2:21.926052 3:9.6545499 4:10.464252 5:4.3878987 6:2.3735509 7:4.9218362 8:2.6460974 9:3.0379988 10:1.0888333 11:-1.5916507 12:-1.9116752 
1 1 1 1 0 1 1 1 1:-38.003088 2:36.346554 3:-2.7160017 4:16.512374 5:4.4851409 6:5.5404573 7:9.4357821 8:-2.8612951 9:4.1325759 10:-1.9665304 11:-0.21884017 12:-2.4477472 
1 1 1 1 0 1 1 0.4263083946806599 1:-25.040198 2:23.921624 3:6.0462207 4:10.271207 5:5.7844441 6:6.6001194 7:7.652932 8:2.5775333 9:4.4056621 10:1.1439759 11:-1.9962734 12:-1.6238938 
1 1 1 1 0 1 1 0.1644707944019093 1:-22.861258 2:21.740455 3:7.6483511 4:10.898717 5:4.8404729 6:4.2140799 7:7.2949471 8:3.0048073 9:3.2238174 10:2.2042067 11:-0.33179364 12:-0.49143167 
1 1 1 1 0 1 1 0.6575749360230512 1:-29.086811 2:26.73972 3:3.9742862 4:11.76161 5:4.0677351 6:3.5669453 7:6.0032911 8:0.67417506 9:1.973777 10:2.9364416 11:1.2770089 12:-0.76141576 
1 1 1 1 0 1 1 0.8593215464156174 1:-31.300512 2:27.082503 3:-1.2940464 4:12.011646 5:3.4963489 6:2.3143301 7:7.5888341 8:3.2041685 9:3.4961789 10:1.091856 11:-1.1373765 12:-2.1506739 
1 1 1 1 0 1 1 0.273658256810707 1:-8.558063 2:14.213126 3:6.9117237 4:3.5083452 5:1.1764985 6:1.3169994 7:2.7188255 8:0.14933905 9:1.0302908 10:2.8180781 11:0.16660669 12:-1.6013148 
1 1 1 1 0 1 1 0.6632832672424176 1:-10.237513 2:16.278377 3:6.8977547 4:3.3284392 5:1.7662174 6:-0.029309872 7:1.1753235 8:0.36902782 9:1.8506063 10:2.8003936 11:-1.0712158 12:-0.55495732 
1 1 1 1 0 1 1 1 1:-36.21304 2:29.625477 3:-3.815995 4:11.522121 5:6.1998442 6:0.49927486 7:6.4780258 8:1.3312353 9:2.7803798 10:3.9778564 11:0.99451265 12:2.8718333 
1 1 1 1 0 1 1 0.1318933407396884 1:-30.880785 2:22.659711 3:0.88086138 4:11.027335 5:6.3191551 6:4.6889641 7:7.3516993 8:2.0423309 9:1.1707937 10:3.9744119 11:-1.8209473 12:-1.600697 
1 1 1 1 0 1 1 0.4246880916956733 1:-7.4195238 2:13.656235 3:5.0214875 4:3.941122 5:3.5638473 6:1.7489213 7:3.0356027 8:-1.5122155 9:-2.7921668 10:-0.16335816 11:-1.6339428 12:-1.2648181 
1 1 1 1 0 1 1 0.5980272933266467 1:-14.082477 2:15.274796 3:6.042633 4:5.0937718 5:4.2074632 6:3.3237968 7:5.9546581 8:2.3749108 9:0.97336978 10:2.9044924 11:-0.19142123 12:-1.412275 
1 1 1 1 0 1 1 1 1:-28.118412 2:28.158798 3:0.41129946 4:13.941211 5:-0.63221647 6:5.4629995 7:3.6904046 8:4.4431276 9:4.226548 10:2.7460835 11:0.82357634 12:-5.3920782 
1 1 1 1 0 1 1 0.5825717610539704 1:-27.846673 2:23.039671 3:6.7246392 4:11.830605 5:6.2678982 6:6.7962797 7:6.83339 8:3.8691611 9:2.9088997 10:2.047601 11:-1.462069 12:-4.0744829 
1 1 1 1 0 1 1 0.6356683807175102 1:-15.001539 2:19.134212 3:10.719682 4:11.297804 5:9.7696531 6:6.8697385 7:5.2596154 8:3.2176801 9:3.0220243 10:1.3548786 11:0.33749018 12:-0.89552849 
1 1 1 1 0 1 1 0.915595619593982 1:-14.359301 2:26.613305 3:9.9113253 4:11.717049 5:7.6315773 6:8.4376425 7:5.3535139 8:2.7554006 9:2.4579856 10:2.6941856 11:-2.3009125 12:-3.5506506 
1 1 1 1 0 1 1 0 1:-1.2146644 2:19.473337 3:13.056584 4:10.878505 5:9.3260538 6:7.4918639 7:6.3749453 8:4.195669 9:1.5547841 10:1.000291 11:-1.5202591 12:-2.398039 
1 1 1 1 0 1 1 0.02670262957663883 1:7.4003705 2:19.516508 3:12.713993 4:9.5420189 5:9.4324948 6:7.2852559 7:5.570906 8:3.1480185 9:1.4412975 10:0.61169118 11:-0.36687224 12:-1.3907628 
1 1 1 1 0 1 1 1 1:-16.346862 2:31.21153 3:11.100622 4:13.120249 5:8.9661935 6:6.8623272 7:5.3528165 8:4.3561223 9:-0.5556358 10:2.852934 11:-0.73263368 12:-2.1909514 
1 1 1 1 0 1 1 0 1:4.6149681 2:19.349276 3:13.308049 4:10.767577 5:9.1493622 6:6.9579312 7:6.3503379 8:3.9582067 9:2.1397596 10:1.239547 11:-1.0402165 12:-1.9745761 
1 1 1 1 0 1 1 0 1:-0.14391271 2:19.6392 3:13.04546 4:9.4963421 5:9.1991057 6:7.4143631 7:6.3142556 8:4.8261874 9:2.5646288 10:1.2727064 11:-1.1396656 12:-2.5474002 
1 1 1 1 0 1 1 1 1:-19.112739 2:25.166238 3:8.8609813 4:15.675523 5:7.7388369 6:7.3160568 7:7.122753 8:3.9230545 9:3.305758 10:-0.15301368 11:-3.7854728 12:-2.0768557 
1 1 1 1 0 1 1 0.4591570536272114 1:-8.372369 2:18.306287 3:12.043236 4:9.0573917 5:6.4087353 6:5.4724979 7:6.1075137 8:3.9034125 9:3.4462074 10:0.83227624 11:-1.9787866 12:-1.7749253 
1 1 1 1 0 1 1 1 1:-14.988177 2:24.359048 3:9.0503083 4:9.0042922 5:5.5893604 6:5.7664223 7:6.6540525 8:0.49843832 9:0.98381663 10:1.5195523 11:-0.49884443 12:0.2320788 
1 1 1 1 0 1 1 1 1:-23.886942 2:23.301976 3:6.6335158 4:11.209186 5:7.335932 6:6.1930036 7:9.1986916 8:1.0391576 9:0.22588644 10:1.0993649 11:-2.3923019 12:-0.15756777 
1 1 1 1 0 1 1 0.435555319469416 1:-17.938125 2:20.730431 3:9.5349667 4:10.332401 5:6.7939422 6:3.0130878 7:4.8880488 8:2.0290844 9:1.7172063 10:1.8817628 11:-0.86313799 12:-0.058354441 
1 1 1 1 0 1 1 0.9588014283036279 1:-22.802704 2:23.596393 3:4.1533517 4:9.564289 5:8.4810779 6:3.7669233 7:6.9655986 8:3.9854266 9:2.4929764 10:5.3663137 11:1.1871933 12:-2.4950774 
0 1 1 1 0 1 1 1 1:-30.195324 2:22.659966 3:4.7490772 4:13.240646 5:8.8419352 6:8.3973569 7:7.748902 8:1.9829121 9:-0.46326053 10:4.4828254 11:-0.10973268 12:-1.9393023 
0 1 1 1 0 1 1 0.386886915133732 1:-21.866951 2:18.942088 3:8.9718651 4:10.69804 5:7.6728231 6:5.7026598 7:4.7135822 8:3.232299 9:1.7572218 10:2.8180286 11:-1.3467277 12:-0.66969888 
0 1 1 1 0 1 1 0.74521189088177 1:-26.115556 2:22.065126 3:4.4023479 4:8.7759328 5:6.4475886 6:9.0443551 7:5.3217246 8:2.2982999 9:1.2425266 10:3.8780642 11:-1.502799 12:-3.6702406 
0 1 1 1 0 1 1 0.7493734763538158 1:-25.2093 2:21.441487 3:2.9685498 4:10.152514 5:4.9322721 6:4.6960465 7:3.793885 8:2.6392585 9:-2.05801 10:0.91507391 11:-3.1418544 12:-1.5782021 
0 1 1 1 0 1 1 0.3475710285055828 1:-9.337344 2:12.66426 3:6.0660613 4:2.3017332 5:4.1273588 6:2.813503 7:0.76446997 8:-0.73480435 9:-2.3767802 10:-1.4238683 11:-3.4553467 12:-0.90430734 
0 1 1 1 0 1 1 0.3989253307256344 1:-0.21262484 2:12.34292 3:7.7727401 4:1.4703856 5:2.0897824 6:1.2505473 7:0.22813405 8:-1.119102 9:-0.24820404 10:-1.1240539 11:-2.7439537 12:-0.18601003 
0 1 1 1 0 1 1 1 1:-26.401865 2:17.03232 3:6.5940344 4:7.2071689 5:4.9733596 6:8.065907 7:4.3603834 8:3.6920594 9:-1.5877798 10:2.5501295 11:-2.9168819 12:-4.2819197 
0 1 1 1 0 1 1 1 1:-31.813461 2:19.174359 3:7.2282491 4:9.6233029 5:2.8523256 6:5.9821047 7:3.5515753 8:5.4120849 9:1.2311711 10:0.86278822 11:-5.1272717 12:-1.0533844 
0 1 1 1 0 1 1 0 1:-4.0318227 2:12.35182 3:6.488226 4:2.5641835 5:3.3519306 6:-0.00532149 7:0.32367624 8:-1.4755408 9:-2.1859654 10:0.11906912 11:-2.3462367 12:-0.80153587 
0 1 1 1 0 1 1 0 1:-11.017022 2:14.114735 3:7.8192581 4:4.6176975 5:2.8344715 6:1.3026345 7:1.0444135 8:1.7686013 9:-0.72880749 10:-1.877847 11:-1.2161899 12:-0.75454013 
0 1 1 1 0 1 1 1 1:-24.927464 2:16.693764 3:7.4089704 4:9.7985563 5:4.3243093 6:4.0294939 7:3.2929202 8:3.0910045 9:4.0632124 10:4.7641574 11:1.1841345 12:-3.3721511 
0 1 1 1 0 1 1 0.4137890092267206 1:-21.726787 2:23.812744 3:7.7910612 4:10.061228 5:5.5631657 6:7.7637767 7:4.6565393 8:2.436167 9:1.2774318 10:-0.16230674 11:-2.0184398 12:-2.7267125 
0 1 1 1 0 1 1 0.9242906809786111 1:-22.138977 2:24.72323 3:9.7367481 4:13.317449 5:6.3008074 6:7.1067638 7:6.105499 8:6.7630475 9:1.9242252 10:-1.1534961 11:-0.26818109 12:-2.0388523 
0 1 1 1 0 1 1 0.1426741026887287 1:-2.397617 2:18.962361 3:13.517247 4:10.343001 5:9.4628089 6:6.9333449 7:5.1569829 8:3.7033196 9:1.4642326 10:-0.15026207 11:-0.22101818 12:-0.86418142 
0 1 1 1 0 1 1 0.2045428164070521 1:-5.3642889 2:22.312224 3:14.426059 4:11.048188 5:9.5841001 6:6.9430058 7:4.5868924 8:3.1322121 9:1.3707298 10:1.1378948 11:-0.76052843 12:-2.0369997 
0 1 1 1 0 1 1 0.3503418942171356 1:-0.69286418 2:20.885642 3:15.402381 4:11.825593 5:9.4516129 6:6.3486219 7:4.5336343 8:3.5667849 9:1.9078664 10:0.70731031 11:-1.4060912 12:-1.9454387 
0 1 1 1 0 1 1 0 1:11.809023 2:18.357086 3:13.60093 4:9.5912006 5:8.8632439 6:6.5344789 7:4.9220703 8:4.3317929 9:2.3796901 10:0.87094588 11:-0.75293254 12:-1.6693046 
0 1 1 1 0 1 1 1 1:-21.420259 2:33.445342 3:12.95677 4:16.884694 5:4.7736601 6:7.9678907 7:1.6270261 8:5.9444905 9:0.96177951 10:4.4514345 11:-2.3805894 12:-5.6065145 
0 1 1 1 0 1 1 0.1233020069826949 1:10.235663 2:19.069804 3:13.635641 4:10.08853 5:8.4768271 6:5.9478009 7:4.1311773 8:3.2591198 9:2.116208 10:1.7817105 11:-0.17784036 12:-1.7994773 
0 1 1 1 0 1 1 0 1:0.57905314 2:21.07366 3:13.139899 4:10.416644 5:9.484817 6:6.3761014 7:3.8977251 8:3.4302423 9:2.8305514 10:1.5738833 11:-1.223078 12:-2.7116813 
0 1 1 1 0 1 1 0.7678916513603783 1:-12.774265 2:21.598698 3:12.297727 4:13.392859 5:8.4605785 6:6.5944907 7:6.1300907 8:3.8625837 9:1.2928183 10:-0.3409907 11:-2.7732241 12:-0.86332253 
0 1 1 1 0 1 1 0.4093852331473301 1:-7.6286343 2:18.696189 3:12.469008 4:9.9646987 5:7.37545 6:4.4206047 7:4.9296336 8:3.2418044 9:2.4746519 10:1.2922631 11:-1.045488 12:-0.52149642 
0 1 1 1 0 1 1 0.3742872666398426 1:-23.28106 2:24.75204 3:6.8833659 4:9.9852832 5:8.625877 6:7.3137695 7:5.6754003 8:1.9849692 9:2.1983584 10:2.6056015 11:-0.31974054 12:-1.3026625 
0 1 1 1 0 1 1 0.6024255202631693 1:-21.774396 2:22.195852 3:8.2693853 4:8.3866044 5:5.6841221 6:7.1741075 7:5.9401806 8:1.8699481 9:3.2013251 10:3.2068764 11:0.64638577 12:0.8445125 
0 1 1 1 0 1 1 0.493622330414429 1:-21.214267 2:20.147142 3:10.449446 4:8.3245381 5:6.358531 6:6.9855703 7:6.2438255 8:3.510296 9:1.981137 10:3.0453781 11:-0.98632445 12:-1.7813871 
0 1 1 1 0 1 1 1 1:-26.490615 2:26.388463 3:9.1076832 4:11.087055 5:6.2321575 6:4.1918432 7:1.1814716 8:1.3977522 9:0.74908155 10:6.0492781 11:1.847984 12:-1.2747784 
0 1 1 1 0 1 1 0.7588891458995377 1:-29.916011 2:24.864219 3:7.0919611 4:9.4379612 5:6.5289017 6:6.0143578 7:4.9620652 8:3.020765 9:3.4502334 10:3.0164374 11:-2.1018771 12:-1.3553114 
0 1 1 1 0 1 1 0.2011984820019575 1:-22.064654 2:23.109781 3:4.5472056 4:8.0865383 5:5.8408788 6:2.4215301 7:4.8750576 8:3.4377643 9:1.1876429 10:3.9213387 11:-0.43977307 12:-1.6124189 
0 1 1 1 0 1 1 1 1:-37.832252 2:20.138962 3:2.3377619 4:11.79682 5:6.4174174 6:4.0364653 7:6.6092395 8:3.8351793 9:-1.110786 10:2.0454293 11:-3.9035211 12:0.68623508 
0 1 1 1 0 1 1 0.9175697613169376 1:-21.521142 2:15.997863 3:4.555442 4:5.1194086 5:2.9498703 6:0.56247428 7:1.3703957 8:0.33939259 9:-0.94448839 10:1.3153259 11:-1.480829 12:-2.6801504 
0 1 1 1 0 1 1 0.7322165541784138 1:-7.0992382 2:14.518299 3:9.0867745 4:4.8813624 5:0.69788339 6:-0.3008417 7:-0.26514686 8:1.225395 9:-0.16485803 10:-1.0667489 11:-1.2923717 12:0.11941315 
0 1 1 1 0 1 1 0.4299254929249652 1:0.2952921 2:14.158389 3:7.300254 4:2.0119406 5:2.661539 6:1.6072691 7:-0.85679582 8:-1.0555742 9:-1.0702713 10:-0.64678664 11:-1.1586929 12:-1.3557953 
0 1 1 1 0 1 1 1 1:-30.397219 2:20.357232 3:1.6492683 4:10.74823 5:3.8929367 6:4.8257399 7:-1.2408793 8:3.3727168 9:1.5758418 10:3.3815286 11:-1.6503506 12:-3.5590042 
0 1 1 1 0 1 1 1 1:-16.494821 2:15.234258 3:9.3109527 4:3.5767555 5:-0.21753477 6:0.45868771 7:0.9126143 8:0.57100616 9:2.297855 10:0.0902457 11:-2.2222046 12:-1.6707779 
0 1 1 1 0 1 1 0.4669025094179276 1:-30.695119 2:23.107727 3:5.1902047 4:9.1772194 5:5.0151717 6:4.1054751 7:4.8531654 8:1.3153372 9:1.2410621 10:4.4043945 11:-1.5281346 12:-1.6891939 
0 1 1 1 0 1 1 0 1:-25.574567 2:23.350274 3:5.8359773 4:12.697847 5:5.685118 6:5.8296749 7:5.0512615 8:3.6369694 9:1.5864044 10:1.690311 11:-1.1530624 12:-2.3993557 
0 1 1 1 0 1 1 0.840055073639152 1:-20.1302 2:25.766578 3:9.807159 4:12.862919 5:5.2525192 6:7.5252547 7:2.8387856 8:3.8127962 9:0.989937 10:1.1691061 11:-0.58296221 12:-1.5161245 
0 1 1 1 0 1 1 0.5312610666958784 1:-2.9708445 2:18.269807 3:13.482576 4:11.182056 5:9.8309444 6:7.5845793 7:5.1636028 8:3.2591305 9:1.5357614 10:0.72827104 11:-0.75341575 12:-1.8797768 
0 1 1 1 0 1 1 0 1:-0.52389154 2:22.5213 3:14.92263 4:10.045778 5:8.0215732 6:6.692836 7:5.2610862 8:3.3666388 9:1.2425928 10:1.1891256 11:-0.22272576 12:-2.1152194 
0 1 1 1 0 1 1 0.1259471108404694 1:0.45652183 2:22.396935 3:14.873269 4:10.856041 5:9.4150459 6:6.4895635 7:4.6708982 8:4.3562133 9:2.896567 10:1.1450179 11:-1.5901124 12:-2.2746862 
0 1 1 1 0 1 1 0.5086725416294747 1:17.14796 2:19.27108 3:11.93023 4:8.6458866 5:9.4409313 6:7.4357548 7:5.4451089 8:3.2763969 9:2.3758185 10:1.1250315 11:-0.90822856 12:-2.4585069 
0 1 1 1 0 1 1 1 1:-10.035336 2:27.187016 3:11.854675 4:12.51617 5:10.946054 6:10.242133 7:3.3346944 8:3.7034896 9:4.1743759 10:0.79400754 11:-2.951937 12:-3.9416629 
0 1 1 1 0 1 1 0 1:12.630173 2:19.771374 3:13.892943 4:9.266704 5:8.2820495 6:6.2541887 7:5.3830899 8:4.0373798 9:2.893419 10:0.73717136 11:-0.9550861 12:-1.8032503 
0 1 1 1 0 1 1 0.396339922962311 1:3.173128 2:19.564013 3:13.620014 4:10.849345 5:10.498054 6:7.8636352 7:6.0108846 8:3.9619054 9:1.5581945 10:-0.4329452 11:-1.6639546 12:-1.5933478 
0 1 1 1 0 1 1 0.9114746707787294 1:-11.874172 2:23.721769 3:14.984342 4:12.724868 5:8.9421104 6:7.2220668 7:5.2629028 8:3.203588 9:0.74650681 10:0.15192845 11:-0.057801977 12:-0.74111058 
0 1 1 1 0 1 1 0 1:-4.1061624 2:19.170138 3:13.176232 4:9.6476412 5:8.0772783 6:5.6085371 7:5.0076195 8:3.5738782 9:2.288671 10:0.94414253 11:-0.3198352 12:-1.0624295 
0 1 1 1 0 1 1 0.6780323035146308 1:-18.607034 2:24.813302 3:9.4916376 4:9.6270468 5:7.7486196 6:2.7990215 7:2.37648 8:2.1946519 9:2.7322507 10:1.9043383 11:-0.90405129 12:-2.0194572 
0 1 1 1 0 1 1 0.5975520409476079 1:-29.389792 2:24.909647 3:5.0321484 4:10.718366 5:8.3439045 6:4.6940794 7:6.187693 8:1.720991 9:-0.59524422 10:2.7388524 11:0.77792317 12:-0.54971517 
0 1 1 1 0 1 1 0.4234119492977895 1:-25.602986 2:19.898657 3:5.7662488 4:9.9510466 5:7.5194785 6:4.6939072 7:6.9737622 8:4.1362559 9:1.7796363 10:1.2374286 11:-1.6566781 12:-2.9154439 
0 1 1 1 0 1 1 0.5323071197193465 1:-32.094377 2:22.509979 3:5.0086373 4:11.342495 5:7.4355896 6:4.4016284 7:5.4485561 8:3.6969832 9:2.4206608 10:2.8231152 11:0.65869576 12:-3.0553994 
0 1 1 1 0 1 1 0.7908233653496386 1:-32.57929 2:27.188576 3:3.8939049 4:10.15666 5:4.6706973 6:5.6401662 7:5.1997931 8:1.8642771 9:3.0227287 10:1.9217607 11:-1.3050597 12:-2.2153973 
0 1 1 1 0 1 1 0.2332270941809443 1:-21.328301 2:21.845097 3:5.6560429 4:7.8194291 5:4.8654554 6:4.3550484 7:6.535141 8:3.7323155 9:2.4277129 10:1.6436518 11:-2.5971767 12:-3.1309762 
0 1 1 1 0 1 1 1 1:-28.549755 2:26.033766 3:3.9473235 4:12.560513 5:3.7873151 6:2.7854925 7:4.206025 8:3.2489434 9:1.2516754 10:4.8571592 11:-2.1941439 12:-5.7569984 
0 1 1 1 0 1 1 0.1324158660068592 1:-26.996627 2:23.227577 3:1.4110014 4:9.8340645 5:3.0611932 6:3.5331568 7:3.4881305 8:3.7788557 9:-0.66587573 10:3.3294172 11:-0.47284691 12:-2.6003885 
0 1 1 1 0 1 1 0.50139660059505 1:-8.4531235 2:13.981948 3:5.7009931 4:4.4722022 5:2.5668984 6:-0.8439579 7:-0.35377866 8:0.66819441 9:-1.1712281 10:1.2154281 11:0.45176369 12:-2.113335 
0 1 1 1 0 1 1 0.3654477785490043 1:-12.711834 2:15.25328 3:7.3649953 4:6.7781746 5:4.4889889 6:3.4419534 7:2.924998 8:1.5444751 9:-0.96582127 10:1.2814934 11:-1.4108237 12:-1.9448854 
0 1 1 1 0 1 1 1 1:-28.052967 2:25.714518 3:3.4726995 4:10.151027 5:3.5706547 6:3.046291 7:4.1750745 8:4.8322408 9:-3.7022632 10:3.8324784 11:-3.7241654 12:-2.6156696 
0 1 1 1 0 1 1 1 1:-24.376719 2:19.310131 3:4.8185391 4:8.2947306 5:4.7665459 6:4.8130258 7:6.1524968 8:5.8996774 9:1.3179206 10:2.236406 11:-6.1575129 12:-4.0192459 
0 1 1 1 0 1 1 1 1:-29.362582 2:23.995402 3:-1.9370077 4:10.906754 5:3.9629656 6:5.4358255 7:4.9478266 8:3.3310407 9:-0.76331 10:1.515935 11:-3.3349527 12:1.462684 
0 1 1 1 0 1 1 1 1:-15.786732 2:14.049839 3:3.5140693 4:3.8840782 5:0.994935 6:-1.5309961 7:1.8001751 8:0.035622981 9:0.039768791 10:-0.57323472 11:-4.6249372 12:-1.2452488 
0 1 1 1 0 1 1 0.3090357901660082 1:-12.738896 2:12.909106 3:6.225289 4:4.2030784 5:4.0462771 6:4.0238771 7:4.1623322 8:1.4416355 9:-1.1983378 10:-1.0982743 11:-0.79983472 12:-0.70594852 
0 1 1 1 0 1 1 0.2355953922704241 1:-0.26986145 2:14.002231 3:8.1299912 4:3.9698089 5:2.2271396 6:2.150419 7:0.87219312 8:-0.40062586 9:-0.41107696 10:-1.674458 11:-0.70363706 12:0.57491629 
0 1 1 1 0 1 1 0.6999103391457132 1:-14.720165 2:18.632843 3:9.5245636 4:11.380652 5:6.1985443 6:5.3021221 7:4.0687114 8:3.2848023 9:1.7954103 10:3.652574 11:-0.80754692 12:-1.6503654 
0 1 1 1 0 1 1 1 1:-23.850047 2:26.658209 3:9.2967516 4:13.033036 5:5.4870382 6:8.7368782 7:6.5263895 8:4.6836262 9:0.55783646 10:5.2252467 11:-2.199103 12:-1.8000468 
0 1 1 1 0 1 1 0 1:-0.20954182 2:20.740303 3:12.547935 4:9.4966434 5:8.4852395 6:6.7412124 7:5.9188556 8:4.0663597 9:2.4625132 10:1.3630779 11:-1.3940289 12:-2.7978756 
0 1 1 1 0 1 1 0.3000224708069363 1:6.2710645 2:19.090772 3:12.871464 4:9.7371292 5:8.5982847 6:6.8989845 7:7.312813 8:4.7420127 9:0.89816552 10:0.27168408 11:-1.0579025 12:-1.8597313 
0 1 1 1 0 1 1 0.6475072023313966 1:-4.5565864 2:26.815869 3:13.916493 4:10.771596 5:6.8726593 6:6.8625306 7:5.6579077 8:4.8719849 9:1.9116071 10:0.50748034 11:-3.0264349 12:-2.3126817 
0 1 1 1 0 1 1 0.1804569707340816 1:15.693515 2:18.551845 3:13.487458 4:9.8594051 5:8.9119558 6:6.4561886 7:5.2398218 8:3.5637176 9:1.8272788 10:-0.42036103 11:-1.869506 12:-1.4832589 
0 1 1 1 0 1 1 0.9872688139413031 1:-4.9919335 2:28.523693 3:12.583532 4:10.489654 5:9.3464214 6:7.7163907 7:5.5355676 8:2.8668865 9:0.50877246 10:0.028453987 11:-3.1354372 12:-2.2931157 
0 1 1 1 0 1 1 0.6507967103857503 1:10.466835 2:19.010345 3:14.897023 4:10.649292 5:8.0604863 6:5.5296106 7:4.556144 8:3.6594261 9:2.2514337 10:2.0068162 11:-0.93677043 12:-2.6483605 
0 1 1 1 0 1 1 0.4363484739783347 1:4.9866882 2:21.609918 3:14.726853 4:9.1685013 5:7.798974 6:7.0097294 7:5.3400609 8:3.5221544 9:1.6426931 10:2.0848299 11:-1.2107831 12:-3.0610713 
0 1 1 1 0 1 1 1 1:-11.661465 2:25.748046 3:14.461821 4:11.41505 5:6.8456733 6:4.2047196 7:5.010857 8:5.242603 9:2.9027817 10:3.6345196 11:-1.2458632 12:-3.6340343 
0 1 1 1 0 1 1 0.04948029023313987 1:-4.4681913 2:18.271738 3:11.422471 4:8.7031097 5:7.9081241 6:6.9703514 7:5.4992823 8:3.0305714 9:2.0427553 10:1.025336 11:-1.8361467 12:-1.8416613 
0 1 1 1 0 1 1 1 1:-18.524746 2:21.950614 3:8.3305938 4:7.5740076 5:4.8402897 6:8.7481894 7:4.4317633 8:3.9661019 9:0.56397769 10:-0.29279348 11:-2.3487974 12:-0.83765867 
0 1 1 1 0 1 1 0.370132109098349 1:-24.137869 2:21.661666 3:6.4158035 4:6.8012504 5:6.057308 6:6.7410507 7:4.5684944 8:4.6891377 9:1.0396146 10:1.6433204 11:-0.5227064 12:0.085514398 
0 1 1 1 0 1 1 0.7702191616391529 1:-23.035507 2:23.700169 3:5.2190509 4:6.0652857 5:4.9401234 6:3.3039421 7:7.2554542 8:5.1802108 9:2.4260326 10:2.8832266 11:-0.61688579 12:-2.2894681 
0 1 1 1 0 1 1 1 1:-36.104006 2:31.798554 3:-0.42534537 4:11.254543 5:7.578261 6:0.84203894 7:7.5006392 8:2.7356853 9:0.34320832 10:4.8775437 11:-2.4326829 12:-3.3606527 
0 1 1 1 0 1 1 1 1:-30.902861 2:24.364886 3:0.31323237 4:9.8493445 5:8.8136051 6:3.3482038 7:7.2407001 8:1.1725109 9:-0.44230992 10:4.3835745 11:-0.944422 12:-1.7893764 
0 1 1 1 0 1 1 0.6522060771138526 1:-25.384816 2:24.399297 3:3.1311196 4:6.2499161 5:6.1732053 6:2.9102932 7:5.9249192 8:2.1190881 9:1.059306 10:2.8629259 11:-0.30661866 12:-0.29983902 
0 1 1 1 0 1 1 1 1:-36.12538 2:35.536065 3:-7.4091516 4:7.064868 5:10.202003 6:2.4513298 7:8.3853546 8:1.6101703 9:-4.5211156 10:3.1833918 11:0.030312266 12:-0.73101441 
0 1 1 1 0 1 1 1 1:-29.326458 2:22.717765 3:-1.6753278 4:5.1551377 5:5.6714485 6:1.7721679 7:5.8308676 8:3.2106363 9:0.56589287 10:2.3412765 11:-1.0447828 12:-1.8854 
0 1 1 1 0 1 1 1 1:-8.8840697 2:9.486795 3:4.34724 4:4.399092 5:1.0453298 6:-3.4565889 7:-0.68322842 8:1.9599962 9:-0.018017347 10:-1.6458245 11:-0.43125976 12:-0.25934588 
0 1 1 1 0 1 1 1 1:-6.7603256 2:10.789955 3:5.1376677 4:-0.32377192 5:1.465352 6:-0.98957793 7:-2.8094583 8:1.2132629 9:-1.3538008 10:-0.1020582 11:-0.49752642 12:0.32129276 
0 1 1 1 0 1 1 1 1:-16.785549 2:19.668368 3:6.6568315 4:4.679143 5:3.1694364 6:4.6949243 7:4.194347 8:2.9760841 9:-1.0946622 10:2.529974 11:0.8185612 12:0.55648407 
0 1 1 1 0 1 1 1 1:-22.931489 2:30.03891 3:3.3090581 4:15.324062 5:4.0411885 6:8.4743081 7:1.603828 8:3.8688906 9:-3.3414551 10:2.2591335 11:0.12103869 12:-1.4359918 
0 1 1 1 0 1 1 0.6003044354789304 1:-5.1477285 2:21.378343 3:12.177647 4:8.0759914 5:8.7029453 6:7.7598889 7:5.1766171 8:2.6704254 9:0.88889064 10:0.85588946 11:0.42208113 12:-1.2478484 
0 1 1 1 0 1 1 0.5947555232929247 1:3.1491841 2:21.146492 3:11.906609 4:8.6578655 5:8.5353158 6:7.7250329 7:6.4040305 8:3.4141877 9:0.83550793 10:0.023021285 11:-0.70237352 12:-1.109521 
0 1 1 1 0 1 1 0.7949903091178241 1:-3.965029 2:25.194939 3:13.217523 4:11.119228 5:8.160665 6:5.2529442 7:5.029984 8:5.9620981 9:1.556961 10:0.025061646 11:0.088160818 12:-2.7250586 
0 1 1 1 0 1 1 0.3237156492249391 1:13.990795 2:19.109122 3:13.92326 4:9.8232256 5:8.5973512 6:6.4790278 7:5.1845014 8:2.8419665 9:0.79661467 10:-0.54544586 11:-1.4390253 12:-1.5314228 
0 1 1 1 0 1 1 1 1:-9.9444991 2:32.613295 3:10.988421 4:9.0614794 5:7.5972925 6:9.4573697 7:5.2430301 8:3.9002 9:0.92644037 10:0.95992366 11:-3.1998436 12:-3.4196453 
0 1 1 1 0 1 1 0 1:12.338131 2:18.347374 3:13.118333 4:9.6289175 5:8.9508068 6:6.5389186 7:4.60375 8:3.1028547 9:2.6789874 10:1.6064772 11:-0.61341527 12:-2.2919603 
0 1 1 1 0 1 1 0.02321201430460664 1:1.194396 2:21.071465 3:12.85073 4:10.406339 5:10.77855 6:7.9768122 7:5.3216761 8:3.4516269 9:2.5363648 10:0.79642145 11:-1.1549376 12:-2.1175954 
0 1 1 1 0 1 1 0.1939326668203165 1:0.1558527 2:22.157795 3:13.947165 4:10.995345 5:8.4434215 6:5.7496062 7:5.0199356 8:4.7903158 9:3.2060023 10:0.601635 11:-2.1423487 12:-2.9278535 
0 1 1 1 0 1 1 0 1:0.2783273 2:18.564379 3:13.62889 4:10.520563 5:8.9558572 6:7.5767392 7:5.7669772 8:3.471236 9:1.4042149 10:0.68921357 11:-1.3442328 12:-2.2937819 
0 1 1 1 0 1 1 1 1:-31.507647 2:31.762562 3:4.2791489 4:16.572841 5:5.5211298 6:11.983839 7:3.1846892 8:4.6215617 9:-0.53159853 10:0.44649597 11:-0.20716944 12:-3.9936778 
0 1 1 1 0 1 1 0 1:-17.211177 2:19.556189 3:8.6798004 4:8.7897687 5:7.3726542 6:4.8271172 7:4.8038978 8:2.5923987 9:3.114771 10:1.2437392 11:-1.822457 12:-0.85731209 
0 1 1 1 0 1 1 0.4602748854811022 1:-20.064018 2:22.041471 3:4.5494823 4:8.3143445 5:7.1693534 6:5.4646747 7:5.2767359 8:2.4590179 9:3.9714859 10:1.9796344 11:-1.5818816 12:-1.7534332 
0 1 1 1 0 1 1 1 1:-27.741767 2:30.622694 3:-0.15834471 4:9.6629226 5:3.8793963 6:5.916231 7:2.5653303 8:3.7250121 9:2.7817724 10:2.3743245 11:1.067452 12:0.14997807 
0 1 1 1 0 1 1 0.9447519058108764 1:-20.163038 2:20.784871 3:2.8541343 4:6.1352033 5:6.3045259 6:5.2663922 7:5.2623784 8:4.1023297 9:0.70937034 10:1.6265085 11:-1.2132967 12:0.93892975 
0 1 1 1 0 1 1 0.4716740234115804 1:-24.748883 2:21.401591 3:5.9540586 4:9.0289036 5:7.2729415 6:3.6894267 7:2.2274411 8:4.0836936 9:-0.67391073 10:2.9728402 11:0.8942604 12:-0.57747271 
0 1 1 1 0 1 1 0.8673740023502965 1:-31.405878 2:23.848806 3:4.4302224 4:9.6969019 5:5.679391 6:5.8084412 7:5.0910405 8:5.6080254 9:-2.297379 10:3.4990489 11:-1.4290621 12:-0.98328195 
0 1 1 1 0 1 1 0.8746152643892059 1:-24.775005 2:20.640561 3:6.1003826 4:7.1352231 5:6.6734957 6:3.0891855 7:0.19684044 8:4.2244251 9:1.2577216 10:2.8551334 11:-1.0430627 12:-1.9833611 
0 1 1 1 0 1 1 1 1:-14.287547 2:18.784658 3:4.8081929 4:3.399797 5:4.5677453 6:2.0479689 7:3.1770466 8:3.5547213 9:-2.3749887 10:-0.071178299 11:-1.5146793 12:-1.1103197 
0 1 1 1 0 1 1 1 1:8.5238209 2:10.56877 3:6.9610509 4:3.0937784 5:-0.14224339 6:-2.9914562 7:-1.9041908 8:-2.3245355 9:-2.8544256 10:-2.2220612 11:-1.0466952 12:0.77018184 
0 1 1 1 0 1 1 1 1:-20.714653 2:19.206879 3:4.7431711 4:1.4827645 5:5.260902 6:3.5447033 7:2.7987455 8:3.9415573 9:0.31441466 10:2.6005641 11:-3.5939709 12:-0.86201042 
0 1 1 1 0 1 1 0 1:-3.4927884 2:13.029747 3:5.1941361 4:3.7058758 5:3.7667982 6:1.7555285 7:0.85553136 8:0.078311118 9:-2.181012 10:-0.64355775 11:-0.51807186 12:-0.88015356 
0 1 1 1 0 1 1 0.3971938562599148 1:-1.0873378 2:12.16824 3:6.5422913 4:1.1552375 5:1.3414794 6:-0.23871183 7:-0.65855401 8:-1.1745255 9:-3.5024458 10:-0.59659037 11:-0.31244431 12:-1.003309 
0 1 1 1 0 1 1 0.5476175283755925 1:-28.676876 2:20.451882 3:3.8621211 4:10.755701 5:5.44435 6:2.5943316 7:3.6561969 8:1.2362459 9:-0.77988372 10:1.1822658 11:-1.035079 12:-1.1687284 
0 1 1 1 0 1 1 0 1:-31.917766 2:22.661944 3:3.311362 4:10.47831 5:2.5222841 6:4.8503148 7:4.6484359 8:3.6578423 9:2.3382803 10:1.2014099 11:-0.78726453 12:0.18570763 
0 1 1 1 0 1 1 1 1:-35.145544 2:28.974352 3:1.0258056 4:8.960149 5:-0.059908282 6:7.9888203 7:3.0568795 8:4.1156817 9:-0.46742869 10:2.0086074 11:0.33912941 12:-3.6344049 
0 1 1 1 0 1 1 0.838040753932714 1:-18.889404 2:16.322393 3:5.6059751 4:4.764816 5:3.9383535 6:2.3591671 7:0.83880011 8:1.4223193 9:3.6404228 10:1.482745 11:-1.9746199 12:-1.0312272 
0 1 1 1 0 1 1 0.1895014333385248 1:-22.689899 2:20.471656 3:8.2937706 4:10.022677 5:6.2140531 6:6.5944876 7:2.9237718 8:3.2291855 9:2.3853443 10:1.8551024 11:1.1602362 12:-0.83463537 
0 1 1 1 0 1 1 1 1:-22.509058 2:24.899191 3:12.407948 4:13.110349 5:4.9716429 6:4.0902262 7:5.9875955 8:7.7463037 9:1.2399739 10:-0.30248622 11:-2.7230222 12:-1.7089315 
0 1 1 1 0 1 1 0.00375772247579716 1:-2.4028139 2:17.996643 3:12.857948 4:9.9048253 5:9.7798832 6:7.4775874 7:5.43331 8:4.0567367 9:1.8610766 10:1.2016738 11:-0.82363818 12:-1.4582871 
0 1 1 1 0 1 1 0 1:-2.9164463 2:23.332286 3:14.612445 4:11.136417 5:8.9304349 6:5.9368561 7:4.6391749 8:3.300086 9:1.1485983 10:0.10793069 11:-1.8845715 12:-1.8153472 
0 1 1 1 0 1 1 0 1:6.2262444 2:20.624179 3:14.638791 4:10.921453 5:9.1894844 6:6.6336019 7:5.0586665 8:2.9890605 9:1.6871271 10:0.38325574 11:-1.367764 12:-2.3513101 
0 1 1 1 0 1 1 0.6616482407415597 1:14.88095 2:19.601244 3:14.412441 4:9.528315 5:8.285868 6:6.0641008 7:3.5713908 8:2.8764905 9:1.2215139 10:0.52795474 11:-1.49164 12:-1.5286184 
0 1 1 1 0 1 1 1 1:-0.52928565 2:24.588791 3:15.524056 4:9.5767875 5:8.2536431 6:8.6046705 7:5.5240296 8:3.6472393 9:0.23113041 10:-0.16363254 11:-3.5453005 12:-3.5011708 
0 1 1 1 0 1 1 0.9028492213093355 1:14.5515 2:16.625142 3:11.545924 4:8.5829245 5:8.7533841 6:6.8058109 7:5.3412781 8:5.0274423 9:3.6112121 10:1.6149454 11:-0.66328993 12:-1.6471199 
0 1 1 1 0 1 1 1 1:-10.344724 2:30.790142 3:11.610893 4:12.675041 5:7.5768182 6:8.0468957 7:2.7408426 8:3.0049805 9:1.8912029 10:2.2323352 11:-1.5242798 12:-3.2441215 
0 1 1 1 0 1 1 0.3639895141804262 1:5.0788254 2:18.486929 3:13.435732 4:9.2171191 5:7.8825181 6:7.0492318 7:6.3257574 8:5.1194318 9:2.2919162 10:1.2609008 11:-0.70909244 12:-1.171194 
0 1 1 1 0 1 1 0 1:-3.9333466 2:20.8807 3:13.328176 4:10.702996 5:9.088326 6:6.4104135 7:4.3649478 8:3.6612027 9:0.77150014 10:0.75405751 11:0.061171015 12:-1.899313 
0 1 1 1 0 1 1 0.5200044674363518 1:-16.775359 2:25.045142 3:9.9684541 4:10.454565 5:8.1626226 6:5.5023682 7:2.1510461 8:2.879479 9:3.7440088 10:1.5749504 11:-1.8059843 12:-1.8540196 
0 1 1 1 0 1 1 1 1:-15.542524 2:17.838928 3:8.7246452 4:8.7869959 5:7.458462 6:5.6956174 7:4.8790472 8:3.1547414 9:-1.6435865 10:-0.15948612 11:-1.4752535 12:-0.16878316 
0 1 1 1 0 1 1 0.6474706987119672 1:-28.806517 2:19.416569 3:4.0635027 4:11.1166 5:7.1945473 6:5.8189905 7:4.0424293 8:4.7243692 9:0.0096657007 10:2.9469922 11:-1.9480352 12:-0.44739053 
0 1 1 1 0 1 1 0.6822721134805315 1:-31.584866 2:21.825849 3:4.6103558 4:11.09778 5:3.7745144 6:4.7843388 7:5.3863692 8:6.1489279 9:-0.53444121 10:1.3765929 11:-2.8396759 12:0.12833921 
0 1 1 1 0 1 1 0.02363392598002336 1:-24.070981 2:19.490242 3:4.8198146 4:7.0840387 5:4.1987703 6:5.3669593 7:4.7661441 8:3.7459414 9:-0.19799896 10:2.5038015 11:-0.37054279 12:-0.38863338 
0 1 1 1 0 1 1 0.946956691237401 1:-26.108627 2:22.478626 3:2.725088 4:12.030779 5:5.8139122 6:5.4691198 7:-0.45877286 8:1.9474652 9:0.34228393 10:4.0779423 11:1.4395138 12:-1.210269 
0 1 1 1 0 1 1 0.5771004163752179 1:-26.622031 2:21.514641 3:6.5940744 4:11.767811 5:5.122599 6:3.2057247 7:2.0041088 8:4.3614301 9:0.5048153 10:1.3791833 11:0.6898656 12:-2.0208139 
0 1 1 1 0 1 1 0 1:-26.900714 2:20.223016 3:2.5642873 4:10.172119 5:4.6734317 6:3.7104178 7:2.9226836 8:2.8189308 9:0.5438793 10:0.63582365 11:-0.73794485 12:-2.7682848 
0 1 1 1 0 1 1 1 1:-31.67892 2:26.234844 3:-1.3903746 4:8.6268035 5:3.7363224 6:4.8584996 7:0.98445003 8:2.1161292 9:2.913203 10:0.40173995 11:-1.0365514 12:-4.4038649 
0 1 1 1 0 1 1 1 1:-38.60342 2:24.257404 3:-2.6197927 4:13.816485 5:3.6449532 6:8.7542793 7:4.8225137 8:2.0897041 9:3.8371327 10:2.5515692 11:1.4972878 12:-4.041871 
0 1 1 1 0 1 1 0.6393902626593689 1:-29.285557 2:22.452173 3:1.2509294 4:7.8178784 5:3.6151537 6:3.3060647 7:5.1167102 8:2.1381446 9:3.3337189 10:1.0223225 11:-3.4461481 12:-2.6355625 
0 1 1 1 0 1 1 0.763536743510676 1:-32.120617 2:20.681506 3:0.063912272 4:9.2218393 5:4.3230814 6:2.2401165 7:6.079406 8:0.29933443 9:1.5476052 10:2.257556 11:-0.82698538 12:0.30307236 
0 1 1 1 0 1 1 0.9225425721450877 1:-7.8157428 2:12.281469 3:9.012567 4:3.6167282 5:0.30938098 6:0.97516236 7:3.0126718 8:-0.72670493 9:-4.1663871 10:-3.1509787 11:-0.77081444 12:-1.1689549 
0 1 1 1 0 1 1 0.2710858065230969 1:-12.91577 2:12.921784 3:7.6981557 4:5.5404663 5:2.2464497 6:0.19125015 7:0.75753726 8:0.85873767 9:1.3903797 10:-0.54419471 11:-2.19826 12:-2.5479694 
0 1 1 1 0 1 1 1 1:-35.40373 2:26.571472 3:-1.3367867 4:12.003927 5:0.95554457 6:2.6781708 7:2.4582816 8:4.9859863 9:2.663042 10:2.7676311 11:-1.074244 12:-2.1873579 
0 1 1 1 0 1 1 0.7463666388124708 1:-25.580461 2:18.340356 3:4.6401699 4:6.6143277 5:2.1081133 6:6.6591743 7:3.4582558 8:3.4153365 9:3.0539978 10:1.1729677 11:0.26347233 12:-1.1348494 
0 1 1 1 0 1 1 0.8168516125602464 1:2.4550016 2:11.038013 3:5.877554 4:0.89402213 5:0.16232738 6:-1.0950297 7:-0.45890788 8:-1.2474439 9:-2.7728734 10:-1.7539456 11:-0.030100401 12:1.1361038 
0 1 1 1 0 1 1 0.8209714668224365 1:-22.150692 2:18.996013 3:9.2514576 4:7.8560041 5:6.6020249 6:4.8217958 7:6.4463402 8:5.9916134 9:2.1231417 10:1.5288009 11:-0.51031071 12:-2.7365099 
0 1 1 1 0 1 1 0.6982210632071396 1:-12.977713 2:22.41764 3:11.439486 4:8.4921403 5:6.9858127 6:5.4781603 7:6.1111147 8:5.7539084 9:1.9963626 10:0.033926634 11:-0.082648245 12:-1.0923486 
0 1 1 1 0 1 1 0.8027539421715073 1:-15.383151 2:24.122709 3:12.543311 4:14.42378 5:7.1649352 6:7.4564576 7:5.523721 8:3.8223813 9:1.7446335 10:1.0142239 11:-0.84679702 12:-3.282417 
0 1 1 1 0 1 1 0 1:8.4891588 2:19.355133 3:13.488727 4:9.2542441 5:8.0526355 6:6.1475746 7:4.9745525 8:3.9549396 9:2.0645763 10:0.35939721 11:-0.71225147 12:-1.4589572 
0 1 1 1 0 1 1 0.03286427417091668 1:-1.1970006 2:21.46052 3:15.066859 4:10.669902 5:8.6462111 6:7.9634749 7:6.429009 8:3.8797096 9:1.6288909 10:1.3345252 11:-1.4653975 12:-2.8628535 
0 1 1 1 0 1 1 0.3375143520321506 1:4.8364112 2:19.441551 3:14.282526 4:10.358298 5:9.8153925 6:7.875738 7:6.1254352 8:5.0118939 9:2.6998508 10:0.80171548 11:-1.6106015 12:-3.3815544 
0 1 1 1 0 1 1 0 1:13.232119 2:19.297585 3:13.312447 4:8.9787321 5:8.6147356 6:6.6684771 7:5.3249955 8:4.1462268 9:3.1207893 10:1.1639168 11:-1.6344847 12:-2.8552291 
0 1 1 1 0 1 1 1 1:-9.4467313 2:28.154894 3:12.078652 4:11.591799 5:9.0764929 6:9.6096588 7:6.2073417 8:3.0413484 9:-0.78337688 10:-0.23415098 11:0.18007506 12:-3.8383746 
0 1 1 1 0 1 1 0.04700093456784676 1:8.5057687 2:17.659445 3:12.744979 4:9.7811169 5:9.1749981 6:7.2736193 7:6.0393751 8:4.6803431 9:3.0976174 10:1.0012639 11:-1.0876013 12:-2.1552609 
0 1 1 1 0 1 1 0.6599796477576525 1:-4.4155976 2:23.29982 3:12.398822 4:11.094363 5:10.207777 6:7.4003632 7:4.1157689 8:3.4244665 9:-0.76742332 10:1.1132184 11:-0.93176 12:-2.4306445 
0 1 1 1 0 1 1 0.7376812380574241 1:-9.1814366 2:20.542805 3:11.745144 4:8.3310851 5:8.7534881 6:8.5189545 7:4.8688221 8:4.1063576 9:1.3008428 10:3.2003525 11:0.57393057 12:-2.6324372 
0 1 1 1 0 1 1 0.9446492002992885 1:-8.21335 2:18.013362 3:10.230305 4:7.23216 5:6.9458037 6:6.8402375 7:3.6080982 8:4.1823193 9:0.64184973 10:0.9350392 11:-1.8077597 12:-2.1966601 
0 1 1 1 0 1 1 0.6013349163031789 1:-25.170334 2:22.933525 3:5.6905676 4:11.347734 5:4.788617 6:7.8327195 7:1.7715935 8:5.8955807 9:0.5970225 10:1.6705775 11:-0.80578443 12:-3.0981378 
0 1 1 1 0 1 1 0 1:-22.740672 2:21.673735 3:6.136918 4:8.4992945 5:5.7429871 6:6.7260369 7:3.5836232 8:3.3993461 9:1.4922065 10:1.5247091 11:0.35287453 12:0.077222704 
0 1 1 1 0 1 1 0.5712810331162666 1:-23.998788 2:21.086966 3:5.4143271 4:8.3135408 5:8.7550666 6:7.2028383 7:5.453178 8:2.5899578 9:1.6206162 10:2.0805518 11:-2.4596966 12:-4.2239694 
0 1 1 1 0 1 1 1 1:-30.212748 2:29.733315 3:0.46142983 4:10.233075 5:2.873056 6:3.1962628 7:7.1065899 8:3.5745847 9:1.114118 10:1.558062 11:-3.4582214 12:0.34266342 
0 1 1 1 0 1 1 0 1:-24.270512 2:21.300457 3:4.304013 4:9.9218644 5:7.0751612 6:2.9145188 7:3.8795127 8:3.1472609 9:0.73080349 10:2.5715149 11:-1.3285384 12:-0.40143057 
0 1 1 1 0 1 1 1 1:-26.291457 2:23.784103 3:4.2790527 4:8.2188164 5:6.2188742 6:2.608349 7:0.32586948 8:2.1531002 9:1.643594 10:5.5054802 11:-1.3474401 12:-1.9106554 
0 1 1 1 0 1 1 0.7755571584823134 1:-27.692707 2:23.849368 3:-0.3110842 4:7.678481 5:3.3243173 6:4.9287305 7:4.0933839 8:4.2155438 9:-0.098252092 10:4.4274145 11:-1.8199718 12:-2.1408435 
0 1 1 1 0 1 1 1 1:-17.334727 2:13.656686 3:3.005046 4:3.5545203 5:5.5477808 6:3.051854 7:-0.92 8:-0.25806716 9:-0.81120132 10:-0.25379082 11:-2.0823485 12:-1.5611643 
0 1 1 1 0 1 1 0.1734362426123104 1:-0.41852927 2:10.671296 3:5.3926737 4:2.0093437 5:2.1554921 6:1.2765923 7:1.1601672 8:-1.3673081 9:-1.5071509 10:-1.4194411 11:-3.0655428 12:-0.63419408 
0 1 1 1 0 1 1 0.7304722684300778 1:-12.628717 2:11.314011 3:5.4218407 4:2.0106003 5:2.5936136 6:1.1980435 7:-1.4938715 8:0.20072152 9:-1.6550719 10:-2.3913254 11:-3.4208088 12:-1.265936 
0 1 1 1 0 1 1 1 1:-26.205046 2:21.688019 3:4.0158629 4:9.3027463 5:1.2553025 6:0.88491485 7:3.3893214 8:6.0610893 9:0.13884999 10:3.9697104 11:-2.0653242 12:-1.9699791 
0 1 1 1 0 1 1 0.8452295639832651 1:-5.4660044 2:9.7938928 3:8.3298719 4:4.6342631 5:2.3103843 6:2.0134623 7:3.6367181 8:1.5889417 9:-1.8977631 10:-2.0008308 11:-2.8551312 12:-2.3495085 
0 1 1 1 0 1 1 0.09075833882068737 1:-10.941212 2:12.080825 3:6.2042751 4:2.0551352 5:2.7145276 6:2.0949769 7:1.1826737 8:1.1734465 9:-1.1050572 10:-1.1356419 11:0.9390022 12:0.9327545 
0 1 1 1 0 1 1 0.7244066561723164 1:1.4102253 2:13.767614 3:6.6338791 4:2.1547352 5:0.56896783 6:0.91500308 7:0.5241539 8:-2.2304383 9:-3.1951371 10:-3.266071 11:-0.80853918 12:-0.93271937 
0 1 1 1 0 1 1 0.7726942447300997 1:-8.5268099 2:12.767641 3:9.0348797 4:3.46209 5:1.0636385 6:2.0281593 7:-0.076509213 8:0.75317774 9:-0.37680382 10:0.46613126 11:1.9774558 12:0.94493503 
0 1 1 1 0 1 1 0.3601845365296523 1:-21.763653 2:23.708448 3:6.9486252 4:9.0882806 5:3.9430406 6:4.9597693 7:2.2666226 8:3.047186 9:2.0259848 10:1.2382352 11:-0.96823995 12:-1.4172789 
0 1 1 1 0 1 1 0.8112817277607261 1:-19.488584 2:25.907464 3:9.428146 4:8.7362104 5:8.7168884 6:8.3303252 7:3.6017868 8:1.5861543 9:2.9860415 10:0.97041031 11:-1.1677322 12:-1.9819668 
0 1 1 1 0 1 1 0.6168230609602655 1:-2.1263392 2:19.146765 3:12.010593 4:9.1500276 5:9.0278475 6:7.257715 7:5.5391571 8:4.3200778 9:3.3707755 10:0.016986053 11:-2.7260567 12:-2.672653 
0 1 1 1 0 1 1 0.8083555846232042 1:-10.883147 2:26.966554 3:13.83735 4:11.807396 5:6.934569 6:6.8022991 7:5.2790311 8:5.1221696 9:1.4717609 10:1.0230325 11:-1.9090301 12:-4.250922 
0 1 1 1 0 1 1 0 1:11.943691 2:19.343398 3:12.70972 4:8.8715898 5:8.5446254 6:6.8869419 7:5.5661584 8:4.0959191 9:2.104513 10:1.135103 11:-0.56217158 12:-2.1788222 
0 1 1 1 0 1 1 0.2744167253270905 1:9.9104456 2:19.427785 3:13.392369 4:10.533623 5:10.246745 6:7.5104556 7:5.4796712 8:3.4954617 9:1.9471061 10:-0.0074602849 11:-1.7004521 12:-2.3984846 
0 1 1 1 0 1 1 0.4330266557537081 1:6.6993075 2:21.763457 3:13.324673 4:10.85915 5:9.7616062 6:6.7092935 7:5.436198 8:4.0960768 9:1.3637344 10:-0.5143291 11:-1.4511064 12:-2.2702833 
0 1 1 1 0 1 1 0 1:16.098632 2:18.346213 3:13.328068 4:9.5332911 5:8.3152551 6:5.9130403 7:5.0609856 8:3.7802753 9:2.2228905 10:0.67327523 11:-1.1515826 12:-1.6861099 
0 1 1 1 0 1 1 1 1:-13.318948 2:32.242751 3:10.620047 4:14.358454 5:7.7906336 6:7.8262585 7:0.53037143 8:4.3917584 9:5.354534 10:2.1028594 11:-3.2016186 12:-4.6793051 
0 1 1 1 0 1 1 0.549472257933464 1:9.2414215 2:17.880418 3:12.279118 4:9.6001842 5:9.1325834 6:7.3039039 7:5.9263202 8:4.606438 9:3.3994008 10:0.91135332 11:-1.2650968 12:-2.1370054 
0 1 1 1 0 1 1 1 1:-8.5346928 2:22.621279 3:13.337386 4:12.227855 5:10.572812 6:6.0303796 7:2.6274803 8:4.1985072 9:3.8904502 10:0.83663773 11:-2.803649 12:-3.4107643 
0 1 1 1 0 1 1 0.9408932370825962 1:-11.576131 2:21.287241 3:8.5973214 4:8.5756726 5:9.5026923 6:7.4513998 7:5.7406985 8:3.6190474 9:3.5010386 10:2.3351867 11:-2.1246034 12:-3.1380773 
0 1 1 1 0 1 1 0.5567891664365668 1:-17.186957 2:18.796136 3:7.3558841 4:8.4541519 5:8.0076662 6:5.6648655 7:5.1413361 8:2.6334591 9:3.0456813 10:1.8367958 11:-1.0709217 12:-1.9699177 
0 1 1 1 0 1 1 0.9276664967786661 1:-30.277796 2:28.983466 3:-3.5290839 4:10.273866 5:7.327459 6:4.5794745 7:3.7641828 8:1.7567235 9:5.7173521 10:1.9418863 11:-2.1368604 12:-1.2230141 
0 1 1 1 0 1 1 0.8245880066504951 1:-32.348216 2:25.796112 3:-1.4155548 4:9.8053394 5:6.282533 6:5.479499 7:5.1577918 8:-0.80033909 9:4.2289506 10:3.9201131 11:-2.715525 12:-1.8444996 
0 1 1 1 0 1 1 0.3612572088914481 1:-30.492439 2:21.080283 3:2.0460106 4:7.0201305 5:5.1360236 6:3.5480543 7:5.5336373 8:2.9804889 9:3.9776737 10:1.6644538 11:-1.3593318 12:-2.0196207 
0 1 1 1 0 1 1 1 1:-35.236209 2:24.513792 3:-2.4653956 4:11.991567 5:7.1912916 6:4.7127758 7:9.0455911 8:1.6438821 9:3.0033549 10:0.96374885 11:-3.3237875 12:-1.6850833 
0 1 1 1 0 1 1 1 1:-27.059317 2:25.828893 3:0.92418244 4:10.564375 5:8.6293696 6:1.6621243 7:5.6318499 8:0.66262786 9:-0.46151037 10:1.2997207 11:-1.0027009 12:0.8017589 
0 1 1 1 0 1 1 0.7466701095730381 1:-25.407614 2:24.374973 3:1.6614737 4:8.1892813 5:7.6692894 6:3.3551351 7:3.4183793 8:0.20840432 9:1.5623169 10:0.83381622 11:-0.88316133 12:0.70267052 
0 1 1 1 0 1 1 0.6426844865070371 1:-8.1385395 2:16.525741 3:7.9582555 4:3.9663854 5:1.8911776 6:0.45677877 7:2.1031486 8:-0.023206976 9:-0.73026482 10:-1.4280978 11:-2.8224443 12:-0.46922601 
0 1 1 1 0 1 1 0.7300466093350154 1:-31.600762 2:21.967552 3:4.8939631 4:11.096703 5:5.0791802 6:5.9428854 7:3.9993247 8:-0.51649312 9:3.0437463 10:0.72272685 11:0.30658567 12:0.097686637 
0 1 1 1 0 1 1 1 1:-31.846236 2:25.075748 3:0.26280211 4:14.167961 5:2.9365906 6:4.8693714 7:5.9918156 8:0.22257811 9:4.6785354 10:3.0561116 11:-0.29441831 12:-5.2150369 
0 1 1 1 0 1 1 0.3767638021896116 1:-27.720116 2:20.107754 3:2.0369271 4:8.2445866 5:6.6338518 6:5.6060256 7:4.7249613 8:1.4548761 9:2.298841 10:0.010796612 11:-1.3717709 12:-1.9985103 
0 1 1 1 0 1 1 0.8244467538146605 1:-33.128074 2:23.89847 3:-0.30888074 4:11.231848 5:6.3525649 6:4.1914857 7:5.956152 8:2.4142594 9:4.7186316 10:0.19472896 11:-3.8258056 12:-3.1271525 
0 1 1 1 0 1 1 0.8412114550494223 1:-29.260765 2:20.25367 3:1.3929309 4:10.716072 5:9.5620854 6:5.2471046 7:5.3510102 8:1.7784306 9:2.4483645 10:0.97690926 11:-1.0991987 12:-2.0476353 
0 1 1 1 0 1 1 0.2075379008977575 1:-31.493007 2:23.618702 3:-0.018164137 4:10.90926 5:7.1925344 6:5.6408921 7:6.0378455 8:0.97027703 9:2.6008255 10:-0.096428156 11:-2.332307 12:-2.6029193 
0 1 1 1 0 1 1 0.5205118664012001 1:-33.222578 2:22.286301 3:-0.25036973 4:10.759137 5:6.5082612 6:6.0943481 7:5.6143008 8:-0.0331879 9:2.8067377 10:-0.0030219087 11:-1.8719249 12:-0.17560543 
0 1 1 1 0 1 1 1 1:-31.847772 2:23.292203 3:2.1832196 4:10.691852 5:2.477422 6:1.7031389 7:5.4919517 8:1.4629192 9:0.013983657 10:-1.5229454 11:-1.9662888 12:1.8234526 
0 1 1 1 0 1 1 1 1:-9.716765 2:13.615039 3:3.4182438 4:2.7372029 5:3.5083364 6:-0.46883502 7:-2.2018409 8:0.25102087 9:1.8023317 10:0.17824949 11:1.4675538 12:1.9857433 
0 1 1 1 0 1 1 0.2928221360978013 1:-28.898301 2:22.939389 3:3.4226518 4:8.5168951 5:2.7604346 6:3.1829487 7:3.5925347 8:4.4843755 9:4.0708794 10:0.62748888 11:-2.0024018 12:-0.67789469 
0 1 1 1 0 1 1 0.7922998267291244 1:-19.278372 2:22.705812 3:8.1609043 4:9.56636 5:9.03467 6:6.2876852 7:2.3002801 8:4.0421658 9:4.2290414 10:1.9889869 11:-1.7583353 12:-3.4439307 
0 1 1 1 0 1 1 0.2781127039850181 1:-5.8515066 2:19.283362 3:10.775355 4:8.4431374 5:8.2600661 6:7.4451636 7:5.8854751 8:4.5404037 9:2.8821502 10:1.5709981 11:-0.17843874 12:-0.75544862 
0 1 1 1 0 1 1 1 1:-16.389382 2:28.622283 3:12.443301 4:13.839269 5:7.9433108 6:9.0090187 7:3.3960423 8:2.7796873 9:-0.88548918 10:-0.63347149 11:0.25038122 12:-4.1632452 
0 1 1 1 0 1 1 0 1:12.719857 2:18.517792 3:11.948298 4:9.151867 5:8.5406939 6:6.0859331 7:5.2331389 8:3.915331 9:2.2469142 10:0.31093835 11:-1.2807546 12:-1.3888228 
0 1 1 1 0 1 1 0.4766151728402791 1:-3.9529329 2:23.912282 3:14.933132 4:11.273968 5:9.12635 6:7.333216 7:6.7261332 8:4.9227248 9:1.470699 10:-0.6007986 11:-2.7860496 12:-2.9521866 
0 1 1 1 0 1 1 0.4497853306227393 1:13.363548 2:19.100279 3:12.913248 4:8.7105045 5:8.4907803 6:7.0565127 7:5.9238105 8:4.9645551 9:3.3305356 10:0.28464483 11:-1.9748049 12:-2.7935516 
0 1 1 1 0 1 1 0.2779261456939346 1:9.7722675 2:21.0679 3:14.051607 4:9.9100171 5:8.9477993 6:6.7592724 7:5.0494999 8:3.0604766 9:2.0636763 10:0.080005496 11:-1.9380655 12:-2.6028534 
0 1 1 1 0 1 1 0.420700061377928 1:6.4879558 2:21.901534 3:13.800985 4:10.364405 5:8.3524714 6:6.0856916 7:4.2341604 8:3.9962485 9:2.6519309 10:1.8888509 11:-0.86387707 12:-2.4548787 
0 1 1 1 0 1 1 0 1:10.381515 2:19.835386 3:13.382169 4:9.4378404 5:8.7554949 6:6.58656 7:4.8991739 8:3.5266676 9:2.3558451 10:0.71070261 11:-0.86749166 12:-2.2334089 
0 1 1 1 0 1 1 1 1:-20.389722 2:29.908712 3:6.7852879 4:15.700826 5:7.3725847 6:12.508863 7:4.0046316 8:6.1429037 9:1.4375943 10:-1.3140969 11:-0.79590464 12:-4.6780636 
0 1 1 1 0 1 1 0.05652820951093285 1:-5.0272931 2:20.103253 3:11.399567 4:9.6319627 5:9.0146665 6:5.5098803 7:4.2945576 8:3.5976312 9:2.609942 10:1.1925935 11:-0.67335134 12:-1.3221152 
0 1 1 1 0 1 1 0.5919187646660189 1:-13.096965 2:19.484425 3:10.498479 4:10.197113 5:7.2406073 6:4.1677275 7:3.6283944 8:2.4684172 9:3.2956994 10:0.88442946 11:-2.2750541 12:-1.212538 
